191 64
div 0.20358624 -0.18057038 -0.014453998 0.18602136 -0.06448043 -0.09463781 0.19058107 0.21751696 -0.107762255 -0.19576019 0.4271753 0.11798546 -0.123928145 0.17941438 -0.2385866 0.098877765 0.0011040263 -0.088961065 -0.14255805 0.014403106 0.1434274 0.32824808 0.30063257 0.049582798 0.10225076 0.28311294 -0.08408174 0.045147706 0.13593307 -0.26432103 -0.099218115 -0.13696021 0.37531075 -0.07130445 -0.21218956 0.017170694 0.24103013 0.10435316 -0.078533836 -0.022064408 -0.19247936 0.022684682 -0.13072237 0.10420498 0.09231263 -0.03194503 -0.1269146 0.032059047 0.17343786 0.22724967 -0.20694292 0.1755426 -0.15824896 0.12431055 0.30143064 -0.22409916 0.17894989 -0.1411197 -0.16776535 0.39352438 -0.116201736 -0.019155663 -0.25507239 -0.07692622
span 0.15220566 -0.16764799 -0.14054392 0.039263703 0.20234166 0.16504239 -0.06697035 0.35383663 -0.27731717 -0.27194124 0.13567823 -0.26894593 0.13613135 -0.1869221 0.18658143 0.14365548 -0.22136025 -0.084200226 0.1982282 0.34111053 0.100438714 0.17607886 0.79760474 -0.10739122 -0.32614407 -0.0941238 -0.007758703 -0.21346751 -0.0066265548 0.11844904 0.09749482 -0.073436655 0.101912975 -0.14859036 -0.27253228 0.28483278 0.03910842 0.009487919 0.21502979 0.48103425 0.6109282 -0.11774692 0.020971425 -0.3034073 0.07019677 -0.05464925 0.30798146 -0.049646955 -0.09143529 0.13164513 0.056813344 -0.0844537 0.2706487 0.71318436 0.1493201 -0.30205822 0.21438628 -0.119051844 -0.17464268 -0.26182276 -0.014076983 -0.16132948 -0.06272918 0.28768706
svg 0.35673392 -0.017667549 0.29180628 -0.6130515 0.06503112 -0.331952 -0.022093376 0.14236605 -0.3912719 0.15766399 0.5864283 -0.09135193 0.19944766 -0.25052503 -0.31430885 0.28959733 -0.4257583 0.16579956 0.5057399 0.44623768 0.5572679 0.37639296 0.6450296 0.10763739 -0.21229517 0.22954518 -0.23628551 -0.16990718 0.59615654 0.06770881 -0.20253651 0.17320056 -0.2971878 -0.21703084 -0.106400974 0.26286718 -0.26306108 0.3039717 0.7963618 0.27585766 0.65607923 0.23355255 -0.1848648 -0.98016644 -0.06096119 0.016488634 0.11259366 -0.33833122 -0.36740097 0.045563616 0.2875149 -0.3651073 -0.10498093 0.81125486 0.15921538 -0.1341859 0.30515295 -0.39360142 -0.2204304 -0.31971198 -0.054015867 -0.32800087 -0.3178712 -0.003979025
form -0.105210036 -0.2194256 -0.06427126 0.08603462 0.39487 -0.34202477 -0.04111871 0.068538986 0.19654478 -0.19588114 -0.037441723 0.060234796 0.657294 0.37356424 -0.026470985 0.30441874 -0.26122934 0.002874985 -0.07000717 0.07163375 0.6584781 0.35907376 0.2992471 -0.04552164 0.43381783 0.71924824 -0.13941547 -0.16990252 -0.47982132 -0.33543667 -0.30828354 -0.8231464 0.2925313 -0.4536536 -0.053782288 0.26138952 -0.10146494 0.22012065 0.2924133 -0.41796765 -0.30415675 0.09924625 -0.384588 -0.7613618 0.18829513 0.12647548 0.23712534 -0.11438924 0.37452254 0.23457502 -0.38092244 0.3406826 -0.14159875 0.21292807 0.30906585 0.44170862 -0.025596734 -0.12374345 -0.12089141 0.13328297 -0.37256682 -0.43203667 -0.91201556 -0.6142489
label -0.19676973 -0.15187293 0.12241261 0.42958894 0.001884885 0.15327343 0.29703888 0.3564785 -0.5799874 0.09673046 0.25015116 -0.28373864 -0.19670849 0.17833953 -0.3530445 0.06908019 0.16174392 -0.61355615 -0.4575164 -0.12668161 0.82836 0.55470544 -0.36066207 -0.0865184 0.30248556 0.21538877 -0.34190097 -0.12675332 -0.11830856 -0.15039043 -0.40813518 -0.18874419 0.23461583 0.15264605 -0.49173602 0.40564448 0.3125399 0.27523458 0.09537264 -0.022696866 0.35766867 0.0561757 -0.072814114 -0.09560771 -0.2649542 -0.19179168 0.37245414 -0.19411361 0.5198528 0.37199986 -0.35556436 -0.16782247 -0.103321955 -0.3275924 0.6285768 -0.14605805 0.36825928 -0.3939007 -0.12213585 0.15269391 0.50714463 -0.424395 -0.50595295 -0.07643228
button 0.409328 0.09084454 0.26820308 0.44304767 -0.18025953 0.07635899 0.22309087 0.26119572 0.08817636 -0.041818865 0.04172603 -0.070050456 -0.46762615 0.4353725 0.074547656 0.9165123 0.13123757 -0.20147046 -0.55400956 0.63259155 0.36045647 0.41092557 0.34943163 -0.12442518 0.29294568 0.39493597 -0.2888235 -0.20195791 -0.26545507 -0.25850797 0.18946652 -0.25488436 0.16823216 0.14641838 -0.458177 -0.37030962 0.5332039 0.12260878 0.1343954 -0.105493195 -0.28745267 0.30717903 0.280031 -0.12827697 -0.1477842 -0.25304824 -0.22760189 0.19589663 0.18512087 0.071565665 0.33167434 -0.38176167 -0.315323 0.5409684 0.30861494 0.24672447 0.26707545 -0.112372994 -0.4010603 0.07017327 -0.33191484 -0.12904552 -0.23921588 -0.3190181
path_1 0.35746306 -0.091946274 0.14553142 -0.77593386 0.11754251 -0.1895797 -0.020679636 0.19632888 -0.487302 0.18181284 0.5545221 -0.14651863 0.11551652 -0.29732338 -0.124962956 0.29406625 -0.19731706 0.024285614 0.44959754 0.4696202 0.51010627 0.32708597 0.5670153 0.06634176 -0.21949795 0.120734446 -0.36490828 -0.099831894 0.44863227 0.15082203 -0.2789579 0.24310675 -0.2680615 -0.29471356 -0.04989249 0.25704452 -0.22640777 0.32300782 0.7350497 0.29344442 0.6303023 0.19554837 -0.23072912 -1.1685638 0.0020924932 0.009728654 0.1437405 -0.43507653 -0.32873058 0.085856155 0.19042133 -0.33178285 0.09262226 0.8391954 0.15050553 -0.07482694 0.20509581 -0.3116981 -0.41250628 -0.32391185 -0.12696488 -0.42355496 -0.51377606 0.03777857
div_6 -0.15122573 -0.30358586 0.012677611 0.072166726 0.37124658 -0.33741096 -0.10096636 0.24351472 0.2788883 -0.1659636 0.029252257 0.1861849 0.6485501 0.44279945 -0.17981815 0.43224654 -0.10986423 -0.13636921 0.10421843 0.045001745 0.5037745 0.24060813 0.24298577 0.0576326 0.36088523 0.68933964 -0.016635694 -0.28271744 -0.55134946 -0.26356724 -0.20794445 -0.6871101 0.09925785 -0.32032683 -0.009225466 0.16548818 -0.17582859 0.29617172 0.33102387 -0.43389168 -0.29667753 0.18443608 -0.38168558 -0.7557257 0.17702052 0.0010774584 0.16789909 -0.16444294 0.37759665 0.30407867 -0.40700704 0.34624344 -0.019403238 0.43455678 0.35454035 0.49644777 0.016809048 -0.03758592 -0.11842143 0.26314735 -0.33924842 -0.43921995 -0.7534466 -0.5653314
path_3 0.4449186 -0.19857237 0.13829736 -0.8558368 0.12000452 -0.25511554 -0.03856776 0.13321674 -0.48518008 0.27073464 0.57364804 -0.12565401 0.23012605 -0.34452686 -0.09097942 0.35985708 -0.19494803 -0.0001616627 0.42878306 0.42135534 0.5691561 0.2827022 0.5221633 0.16552782 -0.15625672 0.23173079 -0.46931884 -0.19307108 0.5882068 0.14251423 -0.21819383 0.19563575 -0.23399244 -0.19545741 -0.015212165 0.2912443 -0.24187663 0.278017 0.7545318 0.3013516 0.5221206 0.2777217 -0.28182116 -1.0770389 -0.0387097 -0.07319326 0.0060823555 -0.34489048 -0.4098912 0.055290133 0.11874856 -0.38092303 0.11267904 0.8234762 0.15392847 -0.21082036 0.20037666 -0.38411358 -0.3973726 -0.17942332 -0.10513568 -0.33841434 -0.45840693 0.14722712
div_91 -0.15988246 -0.21928546 0.024478562 -0.009521495 0.37760937 -0.4807598 -0.101696126 0.24535243 0.31558982 -0.121635295 -0.0035134805 0.18295859 0.72290283 0.45500186 -0.05976579 0.42499983 -0.059108865 -0.07518619 0.03865665 0.13870725 0.5364761 0.34372056 0.13008286 0.039381366 0.39915302 0.6949444 -0.13964918 -0.10831432 -0.4814469 -0.32100546 -0.19492857 -0.70155126 0.1209441 -0.29233947 -0.17717397 0.0677792 -0.046402212 0.41342536 0.3288979 -0.41379058 -0.23532316 0.131975 -0.37186685 -0.77937603 0.24755935 0.120564714 0.23437406 -0.18655428 0.36772045 0.3934191 -0.4647059 0.34946096 -0.19936664 0.32081056 0.3781768 0.39214474 0.028701574 -0.022524597 -0.1474548 0.22842723 -0.4064686 -0.38909253 -0.92481613 -0.53166056
span_6 -0.25265956 -0.2169405 0.2746243 0.36708954 0.04531264 0.3582117 0.2704541 0.32918197 -0.5093907 0.080891475 0.15539059 -0.3580439 -0.16975188 0.15735511 -0.3872254 0.028567215 0.10152483 -0.69585496 -0.38197902 -0.24567355 0.8991268 0.86927783 -0.3193844 -0.1256648 0.10098952 0.36868992 -0.12551054 -0.046823297 -0.04701176 -0.20613848 -0.38338044 -0.15115944 0.19097812 0.15114407 -0.40575856 0.21185459 0.35821554 0.24024792 0.1620489 -0.029444842 0.39827722 0.039543673 -0.071291685 -0.08834052 -0.094784014 -0.19901933 0.4376215 -0.21997005 0.42250612 0.45826128 -0.35447654 -0.25754088 -0.35181135 -0.37836802 0.61956495 -0.17468594 0.25644964 -0.7001093 -0.23607849 0.05641014 0.44423303 -0.30744445 -0.4527709 -0.18808354
div_76 -0.15238962 -0.2891092 0.03131284 -0.09027087 0.46932065 -0.31834415 -0.121756166 0.2745411 0.3407741 -0.06696512 0.17757818 0.12777725 0.69359165 0.33669212 -0.1419688 0.34073523 -0.17900458 -0.07870288 0.104991496 -0.09870347 0.46749994 0.40881076 0.15829289 0.18774094 0.3510803 0.6844178 -0.047566257 -0.19554608 -0.5653897 -0.27038 -0.22675447 -0.7682494 0.17534868 -0.3935011 -0.14686476 0.16339178 -0.12183125 0.32561803 0.2798068 -0.5089508 -0.20302981 0.07145752 -0.42787805 -0.687105 0.121753275 0.044475947 0.19635674 -0.10195754 0.27374327 0.40870228 -0.53189313 0.265657 -0.10913102 0.37684402 0.38291955 0.35944942 0.0116722165 -0.13998264 -0.06412171 0.14455692 -0.3513173 -0.38377926 -0.82418144 -0.6477218
path_12 0.3803989 -0.07909379 0.15929247 -0.7200706 0.21020459 -0.14834392 -0.06424104 0.1963212 -0.50890625 0.19139951 0.5127266 -0.12811758 0.0986615 -0.30132064 -0.03390424 0.3095676 -0.16160607 0.07443117 0.4029631 0.4794063 0.6477199 0.31727862 0.5790575 -0.030314602 -0.25573298 0.16316669 -0.39519837 -0.17368175 0.43247095 0.09796907 -0.27296126 0.27630076 -0.28135994 -0.106969796 0.083539926 0.37676477 -0.28611854 0.34863633 0.682237 0.28413373 0.61423 0.27099147 -0.2812195 -1.2341291 -0.007940632 -0.13897626 0.05179182 -0.37370846 -0.41636702 0.08919911 0.15207736 -0.32559556 0.009605668 0.8779972 0.09833819 -0.10660087 0.2935016 -0.31556767 -0.3805432 -0.19844653 -0.03753315 -0.38579875 -0.4601424 0.0490363
input_5 0.14964887 -0.1252711 -0.057583984 0.0078601055 0.09969333 0.16249362 0.087711796 0.571805 -0.35162264 -0.33655906 0.15761095 -0.33517256 -0.015101572 -0.2322575 -0.01668598 0.091372855 -0.13106662 -0.19763307 0.34529364 0.42292643 0.13532874 0.16275005 0.5947316 -0.044288594 -0.2303601 -0.15307517 0.04520612 -0.1634633 0.049910173 0.055096515 0.11044874 0.012947823 0.057548624 -0.31038204 -0.229476 0.26647225 -0.06408187 -0.049252845 0.35191634 0.5089762 0.6478384 -0.19004014 0.04748552 -0.2543999 0.19681305 -0.14665322 0.2798358 -0.2102382 -0.023277178 0.15987372 0.00024577783 -0.13628156 0.21654657 0.53723454 0.13897528 -0.25482696 0.17793922 -0.13357851 0.07648528 -0.22574858 -0.09308333 -0.19850059 -0.014389557 0.11612823
a 0.2849614 -0.08624093 -0.17277241 -0.14053407 0.1704496 0.035384838 0.06486101 0.40758598 -0.38148668 -0.32211646 0.22622593 -0.2759089 0.017469548 -0.1635193 0.114173405 0.18854167 -0.05534221 -0.20822957 0.27002066 0.5411066 0.023156766 0.14934117 0.8144407 0.04700363 -0.1561923 -0.12837538 0.09632038 -0.23899598 0.032941982 -0.0058549372 0.07242005 -0.07976142 0.16354679 -0.20022899 -0.17151459 0.19027987 -0.06324197 -0.13906382 0.42009792 0.4350966 0.5429257 -0.044333525 0.10619583 -0.27099898 0.27269888 -0.13357759 0.17323755 -0.12981886 -0.035870917 0.24418356 0.095343925 -0.042916726 0.18738917 0.6233085 0.055842295 -0.26511392 0.24640982 -0.042315274 0.18366724 -0.19154455 -0.030099457 -0.23439214 0.19996043 0.08832391
path_11 0.3670176 -0.05376178 0.17707448 -0.73652804 0.09213068 -0.2194312 -0.086522266 0.21151432 -0.52354926 0.25857309 0.64970356 -0.07648802 0.13410954 -0.3935291 -0.06771331 0.31921172 -0.17213842 0.06729768 0.49257562 0.43204188 0.6226071 0.33751783 0.5730624 0.12429313 -0.24687766 0.13077278 -0.3862271 -0.20538056 0.42033672 0.14002185 -0.23195675 0.3057035 -0.19900924 -0.25861767 -0.093363024 0.29567915 -0.27825156 0.24374378 0.7538818 0.19022924 0.615185 0.256357 -0.20040464 -1.179316 -0.03004652 -0.07242265 0.09051901 -0.41528714 -0.3647124 0.08640976 0.1562778 -0.4053838 -0.0039877878 0.864822 0.16336663 -0.1839779 0.19885285 -0.2882646 -0.4258919 -0.23163955 -0.040683236 -0.48408502 -0.39301065 0.13117135
div_24 -0.12572512 -0.18007393 0.021918805 -0.000803241 0.35565728 -0.3764422 -0.08906822 0.24907547 0.29205108 -0.1369555 0.059261627 0.15215407 0.67059314 0.43431264 -0.13485742 0.2799498 -0.09966696 -0.096664056 0.028703934 0.052869573 0.49179706 0.2956012 0.25692606 -0.017782282 0.35674128 0.6143599 -0.05994363 -0.16765888 -0.47504407 -0.24790697 -0.24598317 -0.7348907 0.1356271 -0.3236734 -0.14250076 0.15818726 -0.1684346 0.37392735 0.2654476 -0.38615415 -0.2816056 0.26152512 -0.40203497 -0.8632031 0.17317116 0.04077303 0.18693073 -0.19647856 0.46874157 0.32071984 -0.5175874 0.3131029 -0.13448207 0.3145921 0.38355732 0.51699734 -0.0009504541 -0.05040651 -0.16074634 0.16955613 -0.4280273 -0.39218104 -0.93224543 -0.62328106
div_18 -0.07285445 -0.28985265 -0.044267856 0.03677142 0.4297912 -0.3859831 -0.16338441 0.17385241 0.25938758 -0.2230794 0.115745865 0.15607154 0.66155756 0.39676324 -0.23288117 0.33302772 -0.12658334 -0.11362493 -0.0050549232 0.06806961 0.4471594 0.23483582 0.13231836 0.09236779 0.35793355 0.62660897 -0.058409154 -0.19392292 -0.5941978 -0.2923036 -0.28526145 -0.6866761 0.21623501 -0.3601448 -0.15307377 0.153555 -0.21911563 0.38309503 0.2982588 -0.45434237 -0.15710406 0.24319914 -0.3414693 -0.79344404 0.1468614 0.06037623 0.24902949 -0.19759406 0.37161565 0.370891 -0.42240918 0.38393167 -0.08545158 0.3880842 0.45137239 0.4982149 -0.056893967 -0.041421305 -0.12997141 0.18266885 -0.4492167 -0.4466339 -0.8211593 -0.6033913
span_37 0.32934654 0.041039485 0.33992776 0.56396914 -0.47346115 -0.04008467 -0.010586982 0.49561283 0.08278324 -0.17927031 -0.027449466 0.028706906 -0.6683561 0.4613816 0.015317079 1.0648283 -0.11053877 -0.20668311 -0.34130806 0.38121173 0.21107076 0.41914624 0.35313126 -0.20535336 0.18428835 0.44190398 -0.31771514 0.046206884 -0.23586297 -0.100573935 0.15949547 -0.19399182 0.21994148 0.021826884 -0.2872149 -0.5144826 0.47630987 0.23189303 0.29695663 -0.14132541 -0.3935136 0.46390244 0.20873387 -0.21012238 -0.13068195 -0.36420536 -0.25158188 0.21145774 0.31468067 0.0722535 0.41244185 -0.21826106 -0.12857613 0.6093442 0.35742334 0.51062423 0.37444285 -0.255407 -0.45698482 -0.0042990153 -0.15250616 -0.16475953 -0.37793714 -0.31819406
span_41 0.43766314 0.16631283 0.3980289 0.60523856 -0.40529904 0.12562343 0.115143366 0.36909294 0.08131606 -0.0892083 -0.01747501 -0.0009395427 -0.70596576 0.42260706 0.07531908 0.970558 -0.08886487 -0.059683807 -0.41161034 0.4065814 0.27990776 0.3153601 0.3166738 -0.16568081 0.22690605 0.45920104 -0.28986576 0.10898549 -0.32486892 -0.15456073 0.19937754 -0.17456388 0.14771353 0.17447993 -0.36598602 -0.46585554 0.63125724 0.25462785 0.38573137 -0.10342656 -0.41082063 0.47956026 0.18347925 -0.1954646 -0.01834899 -0.31775948 -0.06633661 0.08357531 0.2177506 0.09167357 0.36139134 -0.28929877 -0.051080674 0.76555294 0.55740815 0.3364763 0.37784773 -0.17231943 -0.3218731 -0.008155956 -0.19311154 -0.08437336 -0.24380267 -0.21555549
div_19 -0.062221862 -0.16190019 -0.06413754 0.35036168 -0.022965532 -0.12514623 0.2432463 0.14148407 -0.10963636 -0.1363381 0.27841723 0.13940832 -0.20169272 0.1558748 -0.20775267 0.20143911 0.16036713 -0.14835066 -0.03051912 -0.07402231 0.28508922 0.2370244 0.2450127 -0.08624928 0.192135 0.12568215 -0.24783352 0.052917082 -0.04261587 -0.10663122 -0.119968556 0.022415167 0.343438 -0.036004573 -0.21531114 -0.052649762 0.22288193 0.043927647 -0.035533726 0.04625585 -0.21367723 0.09135532 -0.13444708 -0.042779017 0.16001928 0.0021633327 -0.058836967 -0.0044918805 0.17259592 0.44489732 -0.21953881 0.08025617 -0.10480881 0.22767757 0.3474952 -0.08541549 0.03272641 -0.30265358 -0.13954917 0.315248 -0.15967804 0.1787197 -0.31823933 -0.09715804
div_12 -0.082137145 -0.22604048 0.04584796 -0.009717 0.43564805 -0.38328388 -0.084153526 0.2169036 0.21045709 -0.17317143 0.08878429 0.14256401 0.62082213 0.4559435 -0.034931593 0.4208536 -0.15578611 -0.099297196 0.034254014 0.023179641 0.5399453 0.31389117 0.21584912 0.13996896 0.4334249 0.7886647 -0.104840204 -0.14244147 -0.47223973 -0.2823919 -0.2220362 -0.7017428 0.1565867 -0.41281614 -0.062161196 0.085221484 -0.17592287 0.36021104 0.30870166 -0.45904028 -0.31079084 0.0807357 -0.38543117 -0.7129329 0.064846575 0.06151368 0.2549743 -0.22164537 0.24587199 0.37956026 -0.55952114 0.3760104 -0.1715357 0.36717948 0.4640604 0.47932208 -0.04555839 -0.048998747 -0.15234073 0.21027966 -0.41411957 -0.42622194 -0.8342252 -0.67453194
div_54 -0.16945218 -0.31443453 -0.045017004 -0.07944746 0.42909893 -0.3595766 -0.18061073 0.311367 0.22315425 -0.17204879 0.15505694 0.114400886 0.7326003 0.36624715 -0.03971777 0.32522663 0.0019768316 -0.069278784 0.013946323 -0.056196433 0.58520126 0.40488353 0.13590804 0.14621311 0.408865 0.54464746 -0.09628192 -0.21091613 -0.5684426 -0.3198057 -0.1685207 -0.7136114 0.2012026 -0.31967002 -0.13977374 0.11628235 -0.26105654 0.28151855 0.27231288 -0.4728663 -0.24764316 0.16651492 -0.38846895 -0.69014287 0.12568308 0.08543706 0.30702242 -0.16684851 0.3494927 0.29023215 -0.5245918 0.36315465 -0.15771957 0.3745563 0.34653798 0.45495096 0.08180973 -0.105790034 -0.19485833 0.14629772 -0.3550658 -0.44499385 -0.9486412 -0.5737471
path_2 0.39536422 -0.030558443 0.21236674 -0.72499424 0.18181975 -0.14254642 -0.037684437 0.15876742 -0.56816095 0.21347643 0.5685616 -0.18339683 0.052731406 -0.30160534 -0.03692129 0.2932603 -0.22815618 0.004410984 0.5108861 0.46175373 0.49039224 0.28643876 0.48639673 0.048011433 -0.21543951 0.2523668 -0.46426466 -0.10818132 0.50621325 0.096276864 -0.26781633 0.24052854 -0.26395795 -0.18969089 -0.04763605 0.390483 -0.1889435 0.38677308 0.6694599 0.3203015 0.5997583 0.24712612 -0.28442952 -1.186168 -0.038917705 -0.027928501 0.10107944 -0.39502394 -0.3896 0.05428178 0.12450535 -0.3214349 0.14831926 0.78742677 0.16836485 -0.19931705 0.21017009 -0.3408837 -0.35231203 -0.2606466 -0.16548844 -0.43484598 -0.44371212 0.14235505
span_2 0.23491152 -0.1640867 -0.2149258 -0.09078995 0.18900122 0.057040375 -0.05671894 0.3200891 -0.392197 -0.25292274 0.14117385 -0.41126782 -0.034167986 -0.14742488 0.13953282 0.17581135 -0.16382815 -0.1905516 0.34486657 0.375923 0.21165621 0.09933669 0.60854757 0.025091937 -0.23102959 -0.038981013 0.027937977 -0.11466883 0.16513167 0.04522505 0.1626911 0.05092265 0.12280749 -0.3023709 -0.1961634 0.27170673 -0.06810458 -0.08157418 0.3766905 0.53165466 0.4986896 -0.2286768 0.042840153 -0.2868949 0.22837375 -0.1283926 0.16912642 -0.14678949 0.0061105057 0.2857721 -0.011436752 -0.061685305 0.2906233 0.7445422 0.06307455 -0.035190206 0.17408279 -0.12018901 0.065593004 -0.09628739 0.01316811 -0.13691236 0.093720935 0.15999554
div_82 0.04645004 -0.24286929 0.06924434 0.12451693 -0.0969781 -0.20723741 0.2815263 0.122069135 -0.10790025 -0.1679682 0.30920705 0.12306033 -0.21762893 0.17013404 -0.12228489 0.29649502 0.025715847 -0.08266773 -0.068866104 -0.018222967 0.338001 0.38165453 0.2228638 -0.0746993 0.13440634 0.18383509 -0.14081886 0.0069463993 0.04118553 -0.18644336 -0.012254957 -0.18408222 0.26145086 -0.029808767 -0.09353183 0.07366381 0.26499557 -0.047997434 0.08726872 0.036603782 -0.15114582 0.034976322 -0.14275111 0.06510675 0.123221144 0.06369321 -0.18117215 0.022103867 0.25423446 0.20614752 -0.16314422 0.10126129 -0.13871478 0.106976934 0.24200831 -0.12805784 0.09621423 -0.17477438 -0.21244453 0.32582635 -0.11553886 -0.015127826 -0.24155195 -0.079970814
span_40 -0.28469688 -0.26676607 0.29522103 0.41416556 -0.06645649 0.2345088 0.17316481 0.336588 -0.5201418 0.23959364 0.1365698 -0.44875604 -0.06362472 0.17894043 -0.4100694 0.057910085 -0.013011355 -0.5579929 -0.47283003 -0.20101687 0.91301125 0.80163926 -0.18089423 0.01664714 0.24491623 0.26612058 -0.23689467 -0.3385123 -0.044204783 -0.10582914 -0.3681058 -0.1994779 0.2087059 0.093356684 -0.5168988 0.31365174 0.38913673 0.21396022 0.10206162 0.004748759 0.305114 0.21431649 -0.05536039 -0.047908507 -0.15458117 -0.15065089 0.33703333 -0.18792398 0.35950732 0.3441415 -0.4247425 -0.46290377 -0.19123402 -0.44120547 0.67437255 -0.3052968 0.110050686 -0.6706798 -0.24838091 0.15528877 0.3857175 -0.26669967 -0.5334011 -0.10922025
span_39 0.119945735 -0.1280349 -0.14680836 -0.039245553 0.25240216 0.1094687 -0.010193466 0.32580134 -0.20217967 -0.26034543 0.1699258 -0.34239775 0.010494979 -0.041686174 0.110965304 0.24711695 -0.069035836 -0.21716596 0.2350964 0.44830015 0.15787232 0.18677899 0.69041604 0.029107714 -0.24602322 -0.0815283 0.036028285 -0.14509575 0.08158034 0.022556711 0.13010992 -0.055717826 0.0077388226 -0.25377998 -0.2455224 0.1920901 -0.070724815 -0.08103629 0.4155097 0.4449964 0.5436194 -0.19807647 0.09628226 -0.27404752 0.21217974 -0.09876622 0.11823182 -0.18851413 -0.05217391 0.24836487 0.004122328 0.034688428 0.18356773 0.7374503 -0.01769867 -0.26571408 0.262471 -0.08906829 0.1163047 -0.2882129 0.0007573719 -0.2767553 0.042753212 0.2029035
div_40 -0.18817307 -0.28033316 -0.016818373 -0.04188174 0.40988687 -0.44720176 -0.02158523 0.2089223 0.2653583 -0.19155228 0.061287 0.26374698 0.6867251 0.39877704 -0.10977876 0.47289094 -0.10274129 -0.09117986 0.101081975 0.01832395 0.5868919 0.3160824 0.13041553 0.1553389 0.3579849 0.72500736 -0.082287304 -0.12844224 -0.4396783 -0.117695354 -0.2572561 -0.7541961 0.18277723 -0.37995097 -0.08161466 0.124749444 -0.29020023 0.32574293 0.26760602 -0.483079 -0.18021095 0.14371638 -0.386248 -0.8470378 0.07455519 0.0772775 0.10222361 -0.08887976 0.4471025 0.37571365 -0.5546959 0.47107497 -0.17644253 0.3524072 0.36474746 0.40355015 0.07612885 -0.14952096 -0.11759432 0.2685027 -0.3520205 -0.44179663 -0.7725414 -0.61577886
path 0.44209856 -0.08391102 0.2233258 -0.73753077 0.12626041 -0.22723275 -0.10542452 0.25957802 -0.5594114 0.23172702 0.55859435 -0.17275788 0.2628307 -0.38337922 -0.12502752 0.31217042 -0.22048596 0.06742699 0.45357153 0.41518167 0.5261638 0.39014152 0.5597865 0.07602253 -0.16021448 0.18688923 -0.4027063 -0.24509372 0.5128668 0.1573445 -0.28680298 0.23204002 -0.31959942 -0.29027882 -0.00016070441 0.40799135 -0.31238544 0.33442402 0.7225665 0.31769326 0.51241505 0.29162514 -0.2672173 -1.1307046 0.017613702 -0.057373293 0.12720726 -0.3864576 -0.40430605 0.064067625 0.11819661 -0.3690686 0.089055106 0.75814945 0.1873787 -0.21545172 0.28570497 -0.2920504 -0.35972086 -0.17447433 -0.09153132 -0.35022536 -0.36180016 0.13743198
path_6 0.48274574 -0.13041048 0.14444654 -0.8108061 0.15313727 -0.10549443 -0.07619715 0.19444759 -0.6008153 0.19000241 0.5690584 -0.04252594 0.16798207 -0.321964 -0.14092335 0.34266397 -0.17984359 0.09250653 0.45856553 0.42455888 0.5433817 0.36486816 0.54342914 0.07462714 -0.30587342 0.13537273 -0.38386652 -0.14526482 0.3864913 0.13666888 -0.28057784 0.12524492 -0.22533771 -0.18106343 0.010409374 0.34048504 -0.39506635 0.25767803 0.720523 0.22879887 0.56089044 0.27684176 -0.2248821 -1.1916392 0.041651193 -0.1149968 0.14995734 -0.38650364 -0.46463075 0.03592894 0.14891125 -0.350431 -6.785908e-05 0.8196963 0.083024435 -0.24085926 0.29308337 -0.29732347 -0.4038924 -0.24725153 -0.15729864 -0.38513026 -0.49927744 0.07618359
path_10 0.3604995 -0.08274786 0.21110736 -0.80091506 0.11510958 -0.18762252 0.041598372 0.21878466 -0.45845675 0.17401204 0.62252325 -0.11836761 0.1570473 -0.32701877 0.029400244 0.35716155 -0.21004486 0.017602054 0.58826905 0.43628973 0.53756887 0.26381108 0.5411705 0.067842044 -0.15688768 0.13034083 -0.3445037 -0.21666496 0.42798176 0.06730051 -0.32327422 0.20294192 -0.22244117 -0.23162091 -0.09771738 0.2540829 -0.35721976 0.3587796 0.6429194 0.26276675 0.60703176 0.30339912 -0.3330181 -1.116957 0.0897744 0.06601201 0.070338994 -0.50635123 -0.36845103 0.09778325 0.11820514 -0.27065906 0.10259873 0.81192344 0.10216189 -0.1073889 0.22936118 -0.319159 -0.34477645 -0.3562766 -0.11277276 -0.38596478 -0.45058393 0.18513015
div_56 -0.005248959 -0.08303279 0.011416061 0.22693814 -0.040401533 0.022914572 0.2912836 0.09699573 -0.15949123 -0.2771181 0.3146079 0.16078986 -0.011662229 0.17379028 -0.085624576 0.36410877 0.108910695 -0.02492533 -0.080075555 -0.09676031 0.1306742 0.38350558 0.2602099 -0.08092386 0.117921606 0.1880155 -0.07603234 0.024487572 0.02236763 -0.16629037 -0.10091195 -0.0862163 0.41651946 0.020125493 -0.2287782 0.072011985 0.23090059 -0.084161244 -0.00052954315 -0.019488808 -0.16968307 -0.0033416487 -0.18754297 -0.051185995 0.12716684 0.0186713 -0.037169844 -0.08876938 0.19653828 0.2718687 -0.19201322 0.16856633 -0.091630645 0.07913671 0.3312733 -0.188801 0.08443444 -0.14246164 -0.102041245 0.29304343 -0.16431877 0.047516968 -0.26900294 -0.13594225
div_32 -0.12563464 -0.16207238 -0.043153923 -0.109646164 0.40457425 -0.32173523 -0.22811094 0.29577145 0.19335516 -0.18695283 0.097703174 0.17114311 0.6351936 0.49668896 -0.16445084 0.33505055 -0.07647227 -0.073896 0.1933885 -0.123794004 0.4611534 0.3157419 0.19203155 0.06369997 0.49712154 0.60676914 -0.11781598 -0.19636898 -0.49110815 -0.31899482 -0.23175016 -0.7246114 0.15546781 -0.43952253 -0.07017525 0.13583647 -0.25534558 0.32170713 0.30370197 -0.43198776 -0.26726267 0.09287687 -0.49710414 -0.70543087 0.16672859 0.057332292 0.17356499 -0.27375746 0.33223107 0.45363945 -0.4554614 0.3832766 -0.13513756 0.34286603 0.48946837 0.43966955 -0.09965247 -0.13161218 -0.17897715 0.2862405 -0.3292143 -0.25965747 -0.9342564 -0.51504385
label_7 0.032717638 -0.2106614 0.073685005 0.26668662 -0.06253272 -0.21170785 0.1261343 0.067320555 -0.23240599 -0.18277846 0.31972894 0.09856829 -0.13529067 0.1371427 -0.08213736 0.2244757 0.0021590283 -0.12694973 -0.15649903 -0.0032800715 0.3304188 0.40890652 0.14531988 -0.16368896 0.029735241 0.111155525 -0.11074639 -0.008684826 0.08139584 -0.27631402 -0.07327603 -0.12129592 0.39108288 -0.039172858 -0.1805141 -0.04560594 0.11645831 -0.017967694 0.068116985 0.0028889878 -0.101203196 0.07867063 -0.15598203 0.015763791 0.051505078 -0.047200203 -0.16071744 0.0067643165 0.30353025 0.15417589 -0.17118616 0.21208794 -0.14520508 0.11421844 0.2683388 -0.18027201 0.068818465 -0.20896181 -0.16808848 0.28763375 -0.10396842 -0.07865009 -0.1690817 -0.044889618
svg_1 0.13624896 -0.06451145 -0.1232731 -0.01750923 0.20416804 0.11855881 -0.011144806 0.36129835 -0.31850272 -0.19615318 0.17090823 -0.32018176 0.08899012 -0.07192191 3.301801e-05 0.039556995 -0.17657454 -0.09555177 0.31791773 0.41924104 0.13059314 0.17023054 0.6598888 -0.07500885 -0.21140239 -0.015800184 0.12864523 -0.04800598 0.0665111 0.03219325 0.12301981 -0.04067594 0.06287551 -0.35298863 -0.35288903 0.16998382 -0.00974196 -0.103546634 0.2723619 0.4702186 0.5814746 -0.14483723 0.2031046 -0.36662024 0.16454078 -0.15717852 0.13345847 -0.16585879 0.08312122 0.21426682 0.049148392 0.015030675 0.2921747 0.6549552 0.007224902 -0.23726876 0.2646222 -0.1436065 0.19245459 -0.20398967 -0.012919558 -0.2167411 -0.11441886 0.18134506
div_62 -0.15589803 -0.41952267 0.045772813 -0.038834754 0.4562437 -0.43664894 -0.21987595 0.14495118 0.32178783 -0.084050186 0.15154336 0.17440212 0.6164843 0.40853 -0.062342633 0.46148303 -0.116116814 0.000991921 0.03342937 0.07487771 0.40593022 0.39078712 0.21241553 0.056157947 0.48012865 0.61994517 -0.076627545 -0.29466453 -0.44649267 -0.32051465 -0.22179604 -0.7044545 0.124934085 -0.40076497 -0.10265128 0.10524828 -0.24160804 0.2783141 0.260674 -0.46055242 -0.29117313 0.1552721 -0.35867983 -0.8441266 0.06829449 0.009074513 0.18338358 -0.28187045 0.4084249 0.2867143 -0.49225736 0.33042568 -0.045467813 0.40928984 0.4455297 0.44902483 -0.019090677 -0.05030877 -0.22770287 0.1833848 -0.47454724 -0.39361203 -0.7918846 -0.67517483
svg_3 0.17266077 -0.24599452 -0.05965068 -0.009260782 0.2535781 0.14854458 0.038132243 0.37586045 -0.3158973 -0.2777835 0.18542363 -0.3579242 0.096650906 -0.16593653 0.123031795 0.075236745 -0.1956406 -0.21719524 0.2426303 0.4868302 0.12090506 0.26912504 0.5986285 0.067453615 -0.21905303 -0.12624641 0.051231097 -0.10866091 0.16035603 0.070486225 0.15525441 -0.042208992 0.073824555 -0.32649538 -0.2876589 0.12947655 0.011307602 -0.11580052 0.37898347 0.42840657 0.58867234 -0.18822089 0.012209734 -0.27766308 0.12866993 -0.13753793 0.28539395 -0.13190821 -0.07312447 0.19182035 -0.08869032 -0.19647902 0.26953647 0.6261518 0.10106673 -0.2859994 0.24065156 -0.028377319 0.15704834 -0.14315341 0.0073948544 -0.24588552 -0.028337182 0.15611365
div_86 -0.19625857 -0.28499758 0.031953935 -0.0861032 0.4346356 -0.43645018 -0.07299931 0.12829295 0.24172032 -0.031057106 0.30968833 0.16421102 0.5983109 0.3844967 -0.060955197 0.40115473 -0.09617641 -0.16208214 0.11555959 0.027421597 0.3759464 0.47560185 0.20247453 0.054520793 0.3990554 0.80752707 -0.021706393 -0.16184463 -0.35985458 -0.30372372 -0.1722454 -0.75178164 0.10941569 -0.47252208 -0.05884814 -0.011167569 -0.17386141 0.25529197 0.36417514 -0.48065847 -0.2952417 0.1513229 -0.35947514 -0.71884495 0.14117932 0.03259535 0.20775846 -0.16970195 0.4278628 0.39303967 -0.40694183 0.38091448 -0.15272498 0.2707179 0.40077144 0.55615056 -0.027665595 -0.055631068 -0.14414021 0.20053746 -0.39091024 -0.409415 -0.81672466 -0.6399422
path_4 0.44624177 -0.10036875 0.14040619 -0.77729404 0.18340844 -0.24140118 -0.0076572085 0.29385346 -0.5708188 0.21437135 0.5581493 -0.13051915 0.1443975 -0.36771458 -0.10798324 0.40213388 -0.24383555 0.03189312 0.47352353 0.42539227 0.6060211 0.37180528 0.5533559 0.09854283 -0.2587949 0.1709498 -0.3980318 -0.2322439 0.4284536 0.19284701 -0.21394093 0.19352879 -0.2877431 -0.13882123 -0.08064833 0.32734117 -0.32875928 0.2500177 0.72309595 0.31189752 0.61046207 0.26889306 -0.17583236 -1.1731639 0.003727697 -0.08996403 0.13604742 -0.39329934 -0.43055603 0.06412879 0.11003915 -0.39090863 0.008722114 0.8131347 0.11769456 -0.07113673 0.30440858 -0.283835 -0.41509336 -0.30414188 -0.09611903 -0.4354813 -0.45672143 0.1484672
span_27 0.08168137 -0.12985325 -0.098808505 0.076196976 0.15227015 0.27471653 0.026596542 0.42787725 -0.34794176 -0.24185178 0.040122777 -0.365104 0.05930553 -0.08502211 0.037230257 0.101361535 -0.24883296 -0.10318607 0.16938579 0.40489012 0.30346867 0.19276915 0.61274123 -0.03990178 -0.16818129 -0.119904436 0.040249 -0.0948351 0.11362526 0.073474996 0.08722049 0.06179044 0.068477266 -0.21754391 -0.20880005 0.31681925 -0.11798618 0.034578383 0.3853824 0.3457757 0.6616964 -0.106409945 0.027551984 -0.31702715 0.17540935 -0.15970443 0.22450499 -0.19763002 -0.036275595 0.29603857 -0.050499436 -0.10964241 0.25032172 0.642688 0.08708409 -0.40683484 0.1342076 -0.038969904 0.1603188 -0.15971702 -0.011978805 -0.21483341 0.018980155 0.20496175
div_68 -0.078706615 -0.40977356 0.039183218 -0.08022412 0.4136874 -0.30078354 -0.1324538 0.15193824 0.26741198 -0.14884673 0.10590371 0.19669275 0.68951 0.37673903 -0.06537928 0.3630275 -0.10525839 -0.26034826 -0.045856472 0.07964581 0.5042346 0.2968927 0.13817453 0.048761263 0.40364385 0.6291714 0.010745831 -0.085576676 -0.5061185 -0.24231826 -0.25258985 -0.7611261 0.12484113 -0.34320045 -0.17362264 0.23993099 -0.17845394 0.38674167 0.323755 -0.44489318 -0.2870125 0.12769003 -0.4065327 -0.73224753 0.15792641 0.0005036357 0.27187446 -0.20322031 0.42165425 0.38565576 -0.5307626 0.3879436 -0.14613764 0.40583137 0.28720292 0.38481563 0.01759638 0.017484266 -0.22814451 0.2132259 -0.38375914 -0.2874033 -0.80323637 -0.5451202
div_46 0.16671325 -0.20413706 0.040224936 0.32502502 0.012729143 -0.2091604 0.1858586 0.2097147 -0.1345215 -0.26827657 0.32509333 0.1753125 -0.04894077 0.18753019 -0.13456543 0.22065273 0.04296716 -0.096706636 -0.14221886 -0.06197455 0.18900801 0.35614988 0.23928839 -0.163384 0.043213394 0.2549741 -0.22378014 0.04121849 -0.1358417 -0.2683409 -0.08743584 -0.1442369 0.33953437 -0.038778417 -0.20439933 0.027151188 0.17350014 -0.10181127 -0.026207788 0.051462144 -0.05547681 0.14458248 -0.06355113 -0.058865372 0.100749575 0.015110825 -0.26156953 0.13662854 0.19837818 0.32035512 -0.16567135 0.038489502 -0.17541854 0.09866398 0.24695998 -0.12470208 0.0049082437 -0.18421228 -0.11240741 0.26034507 -0.033742316 -0.036223628 -0.19752595 -0.03612453
span_1 0.18298602 -0.13946368 -0.23076184 -0.071235575 0.092686616 0.17145924 0.065173574 0.39994 -0.32683927 -0.28400025 0.12817767 -0.37085715 -0.08794368 -0.12861851 0.108641945 0.20664594 -0.1337304 -0.17290251 0.29119623 0.4695225 0.14227901 0.14923035 0.7099244 0.05916499 -0.1616402 -0.020426344 -0.014066001 -0.21641965 0.10780663 0.0884917 0.15317345 0.021840964 0.11053056 -0.3377628 -0.1558877 0.2045737 -0.04557649 -0.048308656 0.27766788 0.48739296 0.582818 -0.12268537 0.05316258 -0.2962817 0.12188029 -0.098938905 0.2987853 -0.11381765 0.062350616 0.14266671 0.14374717 -0.0693327 0.39290962 0.6311952 0.14604661 -0.155921 0.1392157 -0.11729345 0.09208347 -0.1497724 -0.09886257 -0.2260942 0.06904989 0.13679367
span_15 0.14901419 -0.083078355 -0.18341973 -0.010804356 0.13312125 0.20092697 -0.051677737 0.27048448 -0.35884637 -0.22711027 0.1435558 -0.29530352 0.044420384 -0.061151702 0.056308776 0.21211985 -0.116235375 -0.193431 0.21351252 0.50286883 0.11168664 0.20302019 0.7056771 0.06879551 -0.1781472 -0.052211832 0.031195145 -0.1421843 0.11081893 0.049775314 0.11370775 0.049707167 0.08621019 -0.331783 -0.17175765 0.2895892 0.054487474 -0.035246503 0.351855 0.5129822 0.49437898 -0.13818054 0.021260206 -0.28267848 0.06884778 -0.12757097 0.21081476 -0.04175144 -0.0038042061 0.23144534 0.028398944 -0.09517164 0.27473855 0.73185307 0.06662421 -0.23330843 0.14607376 -0.03410763 0.13487054 -0.19068003 -0.027899073 -0.25772145 -0.03808339 0.21352366
div_7 0.21876217 -0.07351598 -0.014333865 0.33485907 -0.058299832 -0.036645617 0.11698111 0.08268882 -0.27314287 -0.25000015 0.4222546 0.12028469 -0.0490079 0.06943744 -0.08680773 0.24082305 0.08641191 -0.11743402 -0.10097094 0.0040447484 0.13790159 0.3570824 0.25721565 -0.20563923 0.082046986 0.13012639 -0.12407609 0.025216233 -0.067808285 -0.2755417 0.0024372532 -0.15980859 0.37828058 0.028181238 -0.21044905 0.0074112643 0.24443412 -0.071892984 0.017969677 -0.006391376 -0.33342838 0.08783738 -0.17401211 -0.08893005 0.036745023 -0.034690347 -0.09441616 -0.048936933 0.21677384 0.16517341 -0.04685405 0.21177018 -0.2002534 0.18270692 0.31670815 -0.13399674 0.061458014 -0.1984392 -0.19023187 0.22511092 0.024104552 0.082102396 -0.2826368 -0.1556551
span_35 0.088597015 -0.08591615 -0.019045124 0.3003754 -0.14134488 -0.2507251 0.20667478 0.124903135 -0.17873488 -0.2569034 0.34669003 0.067897454 -0.16786107 0.104504 -0.20962718 0.14885423 0.02117073 -0.09028619 -0.047932677 -0.02664734 0.20109573 0.41563076 0.14563186 -0.21253705 0.032840967 0.16291751 -0.2179382 -0.08400655 -0.03881524 -0.13774967 -0.041439984 -0.15985839 0.30733237 -0.025392696 -0.09588766 0.017525462 0.09221989 0.017733209 0.046122868 0.09496122 -0.22890183 -0.011047049 -0.21189171 0.03557639 0.15176518 0.0548134 -0.13896954 0.022684539 0.14834216 0.25430164 -0.10652982 0.09075128 -0.09695152 0.12384233 0.3258413 -0.19173716 0.08912382 -0.27036706 -0.26300716 0.2553956 -0.12681355 0.0747597 -0.24355055 -0.18178535
span_11 0.0914856 0.030953085 -0.036896583 0.30056345 -0.12350534 -0.122173086 0.26537618 0.226887 -0.2191623 -0.22180526 0.3951771 0.1484027 -0.06327318 0.14568315 0.043988366 0.13735001 -0.07256279 -0.055218887 -0.090415426 0.009057964 0.27551192 0.31827316 0.23742549 -0.20731251 0.07381391 0.30582216 -0.18204948 -0.025886182 -0.00090366154 -0.06507293 -0.035049863 -0.26608795 0.3225687 0.038101 -0.22658682 -0.11450407 0.21733688 -0.06607695 0.018088264 0.040214185 -0.20479678 0.00038629503 -0.31293535 -0.022714084 0.10673547 0.0076994216 -0.11579128 0.11632766 0.31857392 0.24698794 -0.24080634 0.104604326 -0.18858497 0.09389567 0.28776896 0.05262403 0.13911374 -0.124612756 -0.13003765 0.30682924 -0.14252235 0.0052793063 -0.26643613 0.008137354
span_21 0.19361 -0.16966818 -0.16078404 -0.065492295 0.15554088 0.10269273 -0.023642795 0.46391118 -0.32777306 -0.27417824 0.17159681 -0.3974392 -0.0021299694 -0.09714615 0.07502618 0.07124391 -0.10721145 -0.069915146 0.21862134 0.41160157 0.18016882 0.12426381 0.670094 0.026860747 -0.1459974 -0.09115411 0.024462821 -0.18028946 0.041427653 0.048232954 0.12562713 0.09768964 0.058700662 -0.2945281 -0.24081932 0.25663617 -0.02638529 -0.060085002 0.2831127 0.38971415 0.54344416 -0.10003695 0.049175337 -0.32357454 0.072463594 -0.12220428 0.15393344 -0.16232291 -0.00048359437 0.27517167 0.0034388246 -0.098635636 0.27658176 0.75376093 0.045097947 -0.26524487 0.15533446 -0.14599176 0.09661272 -0.12612595 -0.024612753 -0.31477395 0.09334871 0.2440083
span_34 0.04764483 -0.11215007 0.061113156 0.35112146 -0.0016854391 -0.10327028 0.26892474 0.12180549 -0.12474145 -0.20527193 0.3332876 0.17409232 -0.16561292 0.07275151 -0.19598101 0.10410168 0.038237184 -0.17771606 -0.11727262 -0.014924443 0.21043164 0.40881893 0.28580213 -0.10282528 0.07833582 0.042958096 -0.15525845 0.110823 -0.014759866 -0.19998741 -0.1346269 -0.17516416 0.3769569 -0.0349438 -0.098709434 -0.019418787 0.16678679 -0.00012735644 0.118898146 -0.038145185 -0.20034328 0.0459075 -0.101766996 -0.056459494 0.14389691 -0.072836265 -0.1283471 0.050873492 0.27181992 0.32742104 -0.20513451 0.08993991 -0.11273162 0.15267329 0.37207237 -0.0471224 0.016981568 -0.18655461 -0.16573255 0.21534385 -0.11563033 0.05955437 -0.23824577 -0.15917651
input_1 0.1580816 -0.18105434 -0.080947995 -0.030732948 0.116241105 0.118639 -0.015803806 0.34954718 -0.39793754 -0.17969622 0.21173741 -0.37551293 0.0067595253 -0.23694916 0.05789336 0.10897516 -0.17177622 -0.14112401 0.22303174 0.4423648 0.061168045 0.13004676 0.5761651 0.022729209 -0.18614602 -0.05872436 0.06727517 -0.18521413 0.043138094 0.0885979 0.12964626 0.046550795 0.054607704 -0.29918104 -0.3279726 0.22833219 0.0076751825 -0.031535972 0.35910594 0.52756965 0.56171364 -0.13888048 0.16354556 -0.3098234 0.13123477 -0.07740005 0.23442446 -0.06965072 0.0041442667 0.26891688 -0.021884404 -0.10005495 0.32954347 0.65225345 0.18703479 -0.2333613 0.26543456 -0.1699488 0.14286906 -0.16692208 -0.072916016 -0.19447945 0.019873278 0.13506517
div_90 0.12032895 -0.12294746 -0.014808275 0.29867727 -0.09692942 -0.21601316 0.24023072 0.07435463 -0.051083405 -0.3034146 0.30691135 0.081858724 -0.24755491 0.07462554 -0.17970951 0.30591258 0.07871648 -0.1475462 -0.11134415 0.006632783 0.33303854 0.29876733 0.23070206 -0.1956376 0.09932016 0.2203143 -0.17803864 -0.1540719 0.031329326 -0.2870724 -0.08901422 -0.21774396 0.47769386 0.03255596 -0.20827498 0.014397599 0.14378947 -0.08939099 -0.004173539 -0.0068769967 -0.23703466 0.054460187 -0.28378206 -0.005602383 0.1268473 0.048120994 -0.07261707 0.013172605 0.13794795 0.21855107 -0.13631582 0.012643929 -0.23775037 0.18530701 0.2626888 0.016124777 0.051122457 -0.25361848 -0.07334846 0.20635252 -0.021982979 0.008258241 -0.1060776 -0.17703839
path_8 0.37956142 -0.06072865 0.10208162 -0.78712726 0.06799905 -0.10165361 -0.011082638 0.16683543 -0.5650876 0.23785979 0.5650988 -0.13853414 0.06371283 -0.27782452 -0.04041698 0.33525175 -0.15916596 0.10970393 0.49812573 0.41171655 0.64026856 0.34824184 0.56092507 0.11219482 -0.14500001 0.28056195 -0.40006715 -0.17457679 0.4519978 0.13563499 -0.22893386 0.27728358 -0.27676445 -0.3168533 -0.02040047 0.3020358 -0.29414508 0.35804516 0.68287385 0.24575017 0.644796 0.28566855 -0.28863028 -1.1627507 -0.039523147 -0.07661352 0.065346114 -0.4469835 -0.331256 0.08268437 0.18730243 -0.3707415 0.19123828 0.8703272 0.1602965 -0.18398003 0.14938988 -0.36413747 -0.3960903 -0.2631436 -0.06354131 -0.41706407 -0.4039127 0.053051613
span_9 0.17430437 -0.09464573 0.01948346 0.24920353 -0.040069576 -0.19519733 0.2590125 0.11052321 -0.1329648 -0.3380893 0.25397992 0.02191898 -0.14066909 0.08935364 -0.074574076 0.20742439 0.037401903 -0.15745303 -0.037125118 -0.027937371 0.13766916 0.34304467 0.26237866 -0.15084538 0.07970802 0.31415248 -0.13207792 0.03514047 -0.14270411 -0.1858917 -0.043207817 -0.17728823 0.36550772 -0.022677032 -0.21710174 0.032352254 0.22453903 -0.023512462 -0.079768516 -0.08762787 -0.25494114 -0.0034664404 -0.21439233 -0.08101105 0.09197421 0.0095208 -0.00078199885 0.14629905 0.2560671 0.22431439 -0.26121497 0.109060325 -0.03904147 0.1679679 0.28164887 -0.21232279 -0.021716125 -0.25716498 -0.07562978 0.39486432 -0.07053585 -0.05023934 -0.24012628 -0.10565106
svg_5 0.18048398 -0.1287558 -0.2187377 -0.06767748 0.2464782 0.12753884 -0.06630214 0.3846336 -0.30733612 -0.17984872 0.18963645 -0.35243046 0.025277156 -0.12957649 0.06343027 0.08761588 -0.20130087 -0.1956301 0.23750606 0.40134868 0.12840123 0.19473451 0.7000765 0.06590113 -0.30372784 -0.013183529 0.08988212 -0.14807853 0.036704835 -0.052078657 0.1211626 -0.019450104 0.2201559 -0.22492817 -0.22943349 0.19882207 -0.09956517 -0.012947536 0.40016043 0.43751484 0.3898699 -0.27928287 0.0643811 -0.3139101 0.1112088 -0.12766354 0.30988133 -0.14810748 -0.036758173 0.27835652 -0.06416875 -0.08217051 0.2859072 0.6654473 0.05498853 -0.06793769 0.1492966 -0.059907775 0.22029704 -0.23921078 -0.083092734 -0.25017247 -0.005909977 0.21819289
path_7 0.4062399 -0.044422746 0.19357951 -0.7642122 0.1374638 -0.17389254 -0.054529395 0.19744588 -0.5014633 0.20514917 0.6013698 -0.21684018 0.10027217 -0.3330713 -0.04519245 0.2884304 -0.23512793 0.084715694 0.53191507 0.40487573 0.53160274 0.38831115 0.5457073 0.044244096 -0.2119747 0.25011772 -0.38531658 -0.05683168 0.447005 0.15640207 -0.26732096 0.18525438 -0.24866492 -0.23087257 -0.08597828 0.25291935 -0.23427042 0.2723893 0.6052448 0.26457363 0.6363146 0.24872626 -0.19599189 -1.1912842 -0.056921355 -0.06264627 0.102105126 -0.44585735 -0.3408411 0.117424205 0.21456215 -0.38465917 0.1306104 0.79515696 0.088549785 -0.09733568 0.21317756 -0.34452617 -0.39606592 -0.24248284 -0.091510065 -0.419543 -0.4870429 0.09297987
div_59 0.27170098 -0.11356269 -0.01000905 0.18235937 -0.123536825 -0.33920723 0.31192058 0.04681186 -0.089865886 -0.29279104 0.27882347 0.09647646 -0.068696454 0.10865372 -0.15931034 0.23224242 0.15962894 -0.20572807 -0.091289915 -0.06555001 0.286889 0.2656529 0.20377737 -0.15860328 0.050866406 0.21174061 -0.189119 -0.0073130745 0.013026448 -0.1748328 -0.096446246 -0.15808138 0.3060649 -0.0256791 -0.09344827 0.018064367 0.13399304 0.016416134 0.035429217 0.018228685 -0.219771 0.004549336 -0.23050576 0.07746524 0.23315935 -0.05611142 -0.13210931 -0.059262134 0.19663358 0.20124385 -0.15516336 0.028635085 -0.16885038 0.16962014 0.33827442 -0.1743871 0.19414558 -0.27604237 -0.18326645 0.32338738 -0.0815886 0.06838951 -0.21625035 -0.1325453
div_85 0.075515606 -0.0419132 0.035317406 0.1929215 -0.09014521 -0.15635319 0.2374077 0.120551825 -0.14682919 -0.28165048 0.42144054 0.05393685 -0.18867458 0.12184652 -0.09775007 0.19179016 -0.002247177 -0.15951663 -0.13802885 0.04977808 0.15312406 0.3082916 0.18041828 -0.10400284 0.12521201 0.12677136 -0.101881586 -0.08597757 -0.059215624 -0.22784582 -0.11434423 -0.09990672 0.3871783 0.06739807 -0.20067537 0.11412358 0.06812621 0.014461593 -0.05120844 0.07662764 -0.12558658 0.08250428 -0.17080079 -0.045318514 0.057544496 0.012111975 -0.12641351 0.07979072 0.34532928 0.1519064 -0.27358708 0.098392196 -0.20338674 0.081533186 0.32479435 -0.07222254 0.15710382 -0.19390656 -0.20948474 0.23083618 -0.21866797 -0.09475295 -0.22736664 -0.17065084
path_9 0.3319075 -0.07002956 0.10092432 -0.6940668 0.05611753 -0.18612315 -0.0020229837 0.16494715 -0.49215758 0.25808623 0.52558327 -0.13701102 0.15476032 -0.31945255 -0.11332934 0.41634434 -0.17186262 0.08782623 0.5081694 0.52529675 0.539251 0.43743864 0.5363378 0.09697486 -0.26696536 0.12927932 -0.3506974 -0.19603325 0.42871693 0.13926674 -0.32178274 0.19821101 -0.29544243 -0.27306232 -0.0325491 0.42928562 -0.37282786 0.2778233 0.6649304 0.41610792 0.51476675 0.2927956 -0.19866231 -1.232008 0.011730654 -0.061407506 0.03751102 -0.44771585 -0.31619292 0.05604457 0.23551394 -0.32189906 0.1469704 0.8300433 0.08663053 -0.15369593 0.16753696 -0.2441735 -0.31065118 -0.24968702 -0.106969915 -0.30146524 -0.5651948 0.09861059
input_12 0.2035974 -0.1631743 -0.11392469 0.009717036 0.19875345 0.17043194 0.0052009765 0.34321824 -0.36373103 -0.19964191 0.21798389 -0.3293787 -0.052874256 -0.16810575 0.121466875 0.18718736 -0.18138112 -0.18164948 0.24497199 0.49594834 0.051244076 0.20730239 0.6114436 -0.040871773 -0.2883309 -0.06599267 -0.04469041 -0.1451144 0.17080744 0.045437288 0.12839086 -0.011611723 0.020884693 -0.25899637 -0.19792162 0.07992753 -0.051334515 -0.01892967 0.36798128 0.42345726 0.42642644 -0.14362039 0.099974014 -0.25324017 0.14980781 -0.14593513 0.20803773 -0.16090177 -0.09936345 0.2221983 -0.0073709195 -0.18271364 0.32333282 0.61908543 0.11227087 -0.24359748 0.17409287 -0.079037935 0.113860466 -0.12533236 -0.07746586 -0.16535017 0.031298596 0.10074387
div_84 0.08584565 -0.19952528 0.19269447 0.29855838 -0.033567574 -0.22915629 0.21017058 0.20176627 -0.2267259 -0.20633227 0.24190278 0.07949257 -0.08374075 0.12788749 -0.11754748 0.36049366 0.029189643 0.038138255 -0.037069485 -0.038404558 0.2372323 0.3251342 0.23286335 -0.034336753 0.18613386 0.15773883 -0.08678413 -0.021280672 0.018216109 -0.2099153 -0.048088454 -0.08249242 0.3486512 0.052326076 -0.11574504 0.15458721 0.23779444 -0.006980299 -0.024388535 -0.01113246 -0.25149637 0.05788623 -0.154992 -0.031619396 0.12427951 -0.023070531 -0.004672926 -0.008968685 0.26248252 0.31936985 -0.25826946 0.20706321 -0.2544691 0.11886015 0.33004293 -0.15436873 0.080079846 -0.15238826 -0.08241946 0.31320748 -0.111951225 0.03426982 -0.18453422 -0.18182649
div_34 0.12782517 -0.23195632 -0.0049056304 0.36709163 -0.07107478 -0.030841071 0.23385808 0.123358995 -0.14272304 -0.3156552 0.32172444 0.120875865 -0.108484454 0.041471392 -0.14021127 0.2476388 0.10919351 -0.104106344 -0.13595398 -0.015131709 0.20895912 0.30796888 0.18021023 -0.08891655 0.11980283 0.16836807 -0.13787994 -0.09405118 -0.030475872 -0.18906312 -0.11109561 -0.17086309 0.3141922 -0.052188087 -0.2736522 -0.08023439 0.14736989 0.0012434864 0.033734832 -0.062354516 -0.2442926 -0.03258284 -0.1793287 -0.005000866 0.045847893 0.02834565 -0.023728957 0.07540991 0.18211016 0.43944576 -0.2305806 0.16932505 -0.1872523 0.19372591 0.37335777 -0.07530758 0.037682485 -0.23716779 -0.2371033 0.26456973 -0.05805918 0.098585896 -0.13932925 -0.19586459
label_6 0.23236054 -0.13565238 0.045473333 0.24132913 -0.12123382 -0.160103 0.21742733 0.15237996 -0.19277893 -0.21501893 0.23538864 0.03787996 -0.09020707 0.12102179 -0.11011476 0.094130926 -0.061121043 -0.1303941 -0.21888743 0.050151277 0.27074653 0.28389743 0.14735746 -0.21231367 0.085374735 0.16246763 -0.12529503 0.013715513 -0.081012815 -0.19018564 -0.081773 -0.04635213 0.31200275 -0.024458468 -0.12848559 0.119703345 0.09879236 -0.07681039 -0.07389908 0.10805833 -0.19102189 0.11465887 -0.22131436 -0.17595842 0.12079208 -0.025756825 -0.11689323 0.12929082 0.28937966 0.29467165 -0.19400856 0.121806204 -0.18426968 0.13599496 0.22490138 -0.14751731 0.13411523 -0.25541174 -0.18517458 0.3875389 -0.09750612 0.046687294 -0.19402492 -0.20298795
div_3 0.118106954 -0.1404988 0.09245393 0.23247625 -0.0800624 -0.14199938 0.30925125 0.116799526 -0.10223014 -0.32991543 0.20442045 0.2025475 -0.08195447 0.10801019 -0.14843377 0.16714643 -0.023255024 -0.0352098 -0.056065857 -0.034039073 0.2933777 0.2875457 0.22939765 -0.138837 0.18253914 0.29925454 -0.16707937 -0.017094292 0.12174771 -0.19216654 -0.1304689 -0.1450388 0.362399 0.060167633 -0.21115293 0.027112884 0.10001489 -0.032407474 -0.026025172 0.033116437 -0.11737557 -0.06020287 -0.06844461 -0.055863082 0.11746352 -0.038503125 -0.17241134 -0.060934626 0.14040564 0.26881108 -0.18493152 0.13720772 -0.10399988 0.15865113 0.24594492 -0.14399113 -0.0065367045 -0.33348554 -0.15991169 0.39234096 -0.18930893 0.107568115 -0.20057036 -0.08065479
path_5 0.40549785 -0.1248156 0.1285525 -0.74682003 0.08649611 -0.18701546 -0.0140502015 0.22573006 -0.5564595 0.13938807 0.55293906 -0.12179821 0.07058779 -0.372038 -0.105772644 0.34749088 -0.17953487 0.05789363 0.52718574 0.42599973 0.50968057 0.32090762 0.48892415 0.06591613 -0.18824016 0.10018949 -0.4476429 -0.19984382 0.4347625 0.12183137 -0.27565774 0.18697572 -0.2990275 -0.2763783 -0.019652227 0.3604594 -0.35545164 0.36245817 0.7230902 0.28903735 0.5652462 0.2500083 -0.2555927 -1.169479 -0.04227302 -0.021966005 0.12077248 -0.41967624 -0.42205262 0.024408903 0.19907749 -0.28341568 0.08911218 0.7504587 0.16734347 -0.15261829 0.20087965 -0.32918996 -0.41405097 -0.22859065 -0.14624636 -0.2878435 -0.45275438 0.11950921
span_24 0.052676152 -0.08376264 -0.023789247 0.27569896 -0.051137872 0.0010807855 0.3622723 0.081266254 -0.154483 -0.23796502 0.3892976 0.068227485 -0.1267711 0.21630782 0.044327732 0.25289956 0.10251768 -0.07893722 -0.18564065 -0.08558136 0.19917624 0.26793313 0.2438132 -0.12101694 0.045249794 0.14967936 -0.1417478 -0.035553407 -0.004674158 -0.15928614 -0.13617517 -0.18143198 0.33798146 0.025948135 -0.14456764 0.016679386 0.100409135 0.0017460305 0.040931474 -0.040363796 -0.15162013 0.09824687 -0.28522116 -0.0272779 0.18339823 0.09717176 -0.12198575 0.07463783 0.18394978 0.19633716 -0.27845544 0.21994641 -0.049195822 0.15925384 0.26553145 -0.19305016 0.11420189 -0.25199464 -0.15363868 0.3271234 -0.13758488 -0.033069905 -0.3214102 -0.15175125
span_5 0.16979904 -0.13218805 -0.19691321 -0.01832849 0.19494727 0.06465245 0.00073074247 0.36757407 -0.3726142 -0.3389946 0.1673273 -0.32651094 -0.015323063 -0.23595999 0.095764525 0.18363191 -0.10499984 -0.26295745 0.27876174 0.45526958 0.11593365 0.18156636 0.63629913 0.0628204 -0.17243618 -0.06871491 -0.023921 -0.15518045 0.14328656 0.067548536 0.111064196 0.008864566 0.1041593 -0.33927855 -0.2589538 0.07235394 -0.051638275 0.033793 0.4453065 0.43955222 0.5065784 -0.1697658 0.12106918 -0.21065842 0.03415508 -0.123408675 0.23458406 -0.18215588 -0.0670453 0.22965507 0.004814133 -0.08071179 0.259323 0.59493446 0.19312352 -0.18253964 0.21989235 -0.14561357 0.116757944 -0.21731077 0.055730898 -0.20152804 0.08857024 0.18412614
div_38 0.23143959 -0.15745828 -0.19606641 -0.037402935 0.20291863 0.0884878 0.015615129 0.32557082 -0.306425 -0.28507042 0.07351991 -0.2994911 0.013605509 -0.17645797 0.0673369 0.14076394 -0.14645751 -0.06840256 0.22103204 0.52934116 0.097303785 0.2562565 0.5783217 -0.0018939329 -0.13848962 -0.10563162 -0.0047977064 -0.1489435 0.14743613 0.0410671 0.07364736 -0.12528682 0.08096193 -0.19482096 -0.34644574 0.24514532 -0.13256858 0.10241478 0.392238 0.40006733 0.5902361 -0.23368621 0.07379098 -0.2923145 0.1571013 -0.0872335 0.23099422 -0.15928449 -0.034743927 0.3313468 -0.01261934 -0.032639295 0.28056067 0.66503644 0.10651673 -0.25590143 0.29181436 -0.075195454 0.22074059 -0.3467577 -0.057670627 -0.18379778 0.052884266 0.18053895
div_79 0.06519371 -0.21129127 0.011613094 0.27750695 -0.11622613 -0.2495675 0.18287416 0.14515497 -0.08973311 -0.24071303 0.369099 0.026597437 -0.049005225 0.12235342 -0.0741322 0.35768634 0.061489012 -0.018396338 -0.121209286 -0.09772759 0.23838858 0.37468743 0.36021882 -0.19817394 0.20004335 0.12049656 -0.1508236 0.017971002 0.054088343 -0.10874856 -0.13152936 -0.17086048 0.3519646 -0.046138532 -0.049500708 0.097941756 0.16417626 -0.009653414 0.035498857 -0.043105524 -0.20194638 0.07845121 -0.15558496 -0.07258137 0.1517137 -0.013901768 -0.16025844 0.122256905 0.35026547 0.21252161 -0.24553844 0.15777075 -0.1388606 0.0879002 0.336813 -0.16840152 0.0017838451 -0.14046863 -0.1757771 0.28176478 -0.11708747 0.11112525 -0.14212507 -0.1841524
span_32 0.2285364 -0.15336902 -0.07180791 -0.040722597 0.25335515 0.16959536 0.016656796 0.38892773 -0.41291314 -0.13830903 0.1694113 -0.360066 -0.05832109 -0.23676461 0.10836683 0.18176447 -0.13034229 -0.18255505 0.22676013 0.3694334 0.11604789 0.11880799 0.6356745 -0.12372214 -0.17187436 -0.07916759 -0.023207698 -0.16168107 0.06561592 0.021328475 0.19831976 0.011343065 0.10696963 -0.26899788 -0.23016952 0.21699151 -0.11239109 -0.09214742 0.43800807 0.34821457 0.5623969 -0.22847982 0.22190335 -0.22944595 0.23157318 -0.12263001 0.25645015 -0.09723679 -0.028825803 0.21754892 0.025364352 0.023335963 0.19987418 0.7579291 0.1773449 -0.22454964 0.22311372 -0.018194515 0.113901064 -0.074326955 -0.14191817 -0.18256168 0.08469082 0.18007766
div_39 0.1147981 -0.18425068 -0.012821811 0.3005532 0.05592809 -0.14039655 0.21398553 0.08761553 -0.28224012 -0.25702792 0.36850885 0.036457986 -0.121616624 0.08815824 -0.17601757 0.2416448 -0.051344723 -0.08936166 -0.14048187 -0.045920156 0.2108524 0.2847088 0.17840202 -0.18651363 0.045025826 0.20630233 -0.18388802 -0.0937881 0.028536106 -0.1913139 -0.0718021 -0.0951514 0.38561487 0.062877856 -0.1277812 0.10362379 0.15212809 -0.03766335 -0.015713368 0.011987023 -0.28162506 -0.00046018593 -0.22148778 -0.039482407 0.08133591 -0.08345504 -0.20978162 -0.025141787 0.21633385 0.17750084 -0.20138483 0.06908077 -0.14949259 0.108642906 0.34249923 -0.087815784 0.256793 -0.19492118 -0.072709724 0.40447342 -0.15124427 0.06684477 -0.1917341 -0.20646253
label_8 -0.038021166 -0.2412266 0.05705241 0.32446337 -0.09227557 -0.24885093 0.122420974 0.070383355 -0.25978804 -0.07234434 0.32153538 0.02946617 -0.112315856 0.13456021 -0.06313509 0.29802465 0.16930169 -0.1317004 -0.087968014 -0.05055631 0.0748827 0.32960996 0.3389509 -0.12730278 0.10311355 0.18252496 -0.18330364 0.029452927 -0.055808842 -0.27416778 -0.2000877 -0.10651151 0.35574853 -0.12323967 -0.19601262 -0.029142244 0.19168599 -0.08729521 -0.057967804 0.0088721905 -0.14178742 0.0292065 -0.19138156 -0.1224453 0.18224609 -0.03522853 -0.11351823 0.13095126 0.22886342 0.25298542 -0.17787625 0.15756863 -0.24745381 0.09972605 0.3355498 -0.16956787 0.10633849 -0.120649725 -0.26900387 0.30930528 0.007117399 0.074171945 -0.3061055 -0.066498496
div_13 0.12192814 -0.10548402 -3.9771076e-05 0.35477486 -0.04145219 -0.1360502 0.12603563 0.12637159 -0.17609438 -0.3183862 0.2151003 0.16247618 -0.1382751 0.21110211 -0.13809317 0.1837098 0.08273831 -0.12062285 -0.03652533 -0.04197313 0.10904589 0.38554153 0.25583875 -0.2415353 0.14240368 0.24885517 -0.095695406 -0.004484699 -0.058710024 -0.100301936 -0.20732002 -0.23095275 0.30986047 -0.016532825 -0.1880865 0.014077572 0.058256593 0.055589817 0.00230616 0.027901089 -0.31475034 0.21851055 -0.123276256 -0.047885258 0.08132862 -0.038981896 -0.17757285 0.10771366 0.15859057 0.30437413 -0.22083732 0.09740246 -0.07259462 0.24634963 0.32325512 -0.26477402 0.05444045 -0.15535846 -0.14464238 0.26511368 -0.053815342 -0.06235053 -0.16263346 -0.12802228
label_4 0.08731781 -0.05202879 0.044395704 0.28646582 -0.0068273265 -0.23353446 0.20092383 0.036874577 -0.29342997 -0.2017805 0.43480185 -0.031343468 -0.08678891 0.10803264 -0.06542492 0.13360532 0.017091155 -0.045844417 0.0014311802 -0.06961435 0.09596005 0.32952318 0.2488529 -0.1502039 0.021209167 0.25096798 -0.063914225 -0.11882121 -0.028476072 -0.23309344 -0.14896806 -0.24709648 0.26661032 -0.14160794 -0.15842113 0.024593862 0.15245037 -0.040916536 0.017351316 -0.0046005943 -0.15108034 0.14908616 -0.16331518 0.026895804 0.18271783 0.025846178 -0.15076065 0.12028977 0.29253885 0.2306618 -0.18371971 0.12978156 -0.054337647 0.087246455 0.36173293 -0.13590316 0.11159231 -0.18381763 -0.21507695 0.3409572 0.006094204 0.055634387 -0.14530401 -0.23318791
span_3 0.079545066 -0.032179467 0.031933825 0.29876822 0.011717982 -0.1953732 0.2392976 0.18858594 -0.16093051 -0.21600117 0.24929172 -0.00398196 -0.22217168 0.14544654 -0.120797426 0.26586524 0.039855428 -0.11620917 -0.12440113 -0.13592917 0.15885928 0.3437244 0.2866985 -0.06793416 0.07388273 0.17886747 -0.0873258 -0.08083791 -0.0017092231 -0.2152304 -0.08369027 -0.0015426163 0.52854073 -0.0069708754 -0.18909566 0.012710331 0.13475317 -0.05163186 0.19030789 0.08606609 -0.33565563 -0.012736943 -0.18606919 0.031111315 0.16671182 0.023809854 -0.03810777 -0.02877023 0.2269789 0.28385234 -0.30740523 0.080220975 -0.10208713 0.11852879 0.43452448 0.030423088 0.026992913 -0.12166514 -0.10412915 0.36064398 -0.119713895 -0.0065588565 -0.16869377 -0.0736399
span_17 0.12010273 -0.11770047 -0.00425692 0.20365965 -0.15378584 -0.1820231 0.23514804 0.079660594 -0.21563187 -0.20573981 0.34221914 0.037390526 -0.03628422 0.15151113 -0.07035162 0.30374697 0.12240931 -0.15265626 -0.1256457 -0.14321452 0.22532257 0.35611093 0.30398563 -0.07765517 0.0662872 0.22674598 -0.16456449 0.038641997 -0.093455076 -0.15138139 -0.16602129 -0.15840921 0.38979656 0.005950952 -0.19808455 0.04453275 0.22207408 0.018759638 0.011570865 0.069731474 -0.2899652 0.10404011 -0.21163526 -0.05931286 0.13638866 0.10305459 -0.07057569 -0.00631181 0.05568794 0.31605527 -0.095643945 0.14270653 -0.16255532 0.09760739 0.29834124 -0.12942159 0.121973395 -0.07750373 -0.04936748 0.22477272 -0.052921645 0.07138525 -0.2353176 -0.17789108
div_45 0.038415615 -0.07485774 0.048623327 0.27334315 -0.081187755 -0.24001086 0.20760931 0.2411488 -0.12375194 -0.2280908 0.2924632 0.11998607 -0.19193906 0.19552776 -0.100992724 0.24442677 0.040886573 -0.07800168 -0.10950911 0.06448595 0.23028901 0.39630267 0.22844672 -0.10457043 0.07580482 0.11581909 -0.16080785 -0.03289285 0.04870085 -0.217518 -0.1596077 -0.10557757 0.40621886 -0.0102781225 -0.15472004 0.061605155 0.09697836 -0.05968402 -0.099964984 0.020275496 -0.17659101 -0.022384282 -0.1823596 -0.040984925 0.13223915 -0.031544186 -0.052901447 -0.022115134 0.24177305 0.25747314 -0.22843692 0.066085845 -0.15228856 0.13566248 0.25958195 -0.08627963 0.045236163 -0.122604236 -0.10515905 0.25140673 -0.19952036 0.056228586 -0.16909018 -0.1293305
svg_2 0.11164208 -0.13404952 -0.133689 -0.015632862 0.09164052 0.17827864 0.050811253 0.36722073 -0.3111573 -0.26293498 0.12537372 -0.365209 0.006291283 -0.13975956 0.11735448 0.1715216 -0.09701766 -0.09790493 0.25522178 0.47438207 0.16638756 0.20639667 0.63383365 -0.022104293 -0.14790638 -0.1091596 0.06870749 -0.18070085 0.050223563 0.16864406 0.14996697 0.03747896 0.04428373 -0.28972554 -0.26947084 0.28861427 -0.17322166 0.014446546 0.34717372 0.40757626 0.5439604 -0.14504287 0.05946871 -0.3113293 0.12801303 -0.12102366 0.2120585 -0.1346539 -0.04456695 0.28844827 0.052206278 -0.10328475 0.26844338 0.85281533 0.025835644 -0.24471669 0.17436764 -0.05908353 0.07346731 -0.19450088 -0.05946599 -0.19700179 -0.03660196 0.09260576
div_22 0.15104733 -0.1950741 -0.049372688 0.32419336 -0.07507061 -0.24244238 0.21888204 0.13798948 -0.10433265 -0.41839144 0.14765994 0.11033269 -0.09769143 0.12654833 -0.05688689 0.3369278 0.07596839 -0.07584006 -0.038614597 -0.08853127 0.22014923 0.38432488 0.21639802 -0.16267928 0.15185227 0.26739612 -0.19187416 -0.036197793 0.10661947 -0.19665554 -0.070460714 -0.05160305 0.25776118 -0.0733333 -0.20930879 -0.029217394 0.10121609 0.03421255 -0.0593131 0.06430871 -0.1830597 0.031121766 -0.11348339 0.025558522 0.07832767 -0.019187037 -0.14478561 0.04029754 0.2042457 0.1651281 -0.21186979 0.21068393 -0.13593277 0.23573591 0.3128463 -0.18041538 0.016876182 -0.24550503 -0.10795712 0.26823053 -0.076538935 0.051321186 -0.18385682 -0.11982862
div_20 0.18770835 -0.10085008 -0.00045554902 0.29490742 -0.14844102 -0.12665968 0.22338343 0.103886105 -0.14569494 -0.24986273 0.35217488 0.118307345 -0.06271122 0.105861075 -0.15251209 0.22576654 -0.008656353 -0.1259701 -0.13418162 -0.052918874 0.15591766 0.36608547 0.21616171 0.032900434 0.08707398 0.11757494 -0.101745255 -0.008248222 -0.10872149 -0.2063116 -0.07048334 -0.031492777 0.43775696 -0.0005999317 -0.27935702 0.08192992 0.14671718 0.011188199 -0.016150475 0.025650855 -0.19691552 0.092517786 -0.17133819 -0.028053084 0.16664559 0.02151395 -0.022677604 0.057400692 0.35491738 0.22680923 -0.16811489 0.18071243 -0.13356231 0.18004392 0.235411 -0.20606966 0.040935438 -0.15444104 -0.109825835 0.32033828 -0.10585178 0.0670034 -0.28422505 -0.18971519
div_35 0.19075997 -0.14113897 -0.011497985 0.2108558 -0.0795795 -0.17387712 0.19521622 0.16885068 -0.27162164 -0.14171045 0.29351974 0.11159821 -0.23778637 0.14988112 -0.16642934 0.28552747 -0.015965056 -0.14333051 -0.07349637 -0.085050285 0.24141793 0.37892652 0.26402152 -0.19640568 0.09856072 0.25850117 -0.11071561 -0.019763649 0.03811043 -0.26147556 -0.06782064 -0.043875106 0.3881425 0.013279451 -0.17071684 0.018413125 0.0841983 0.03423301 0.047704186 -0.098847605 -0.15886106 -0.0045859725 -0.2217933 -0.09012457 0.021689102 -0.03061653 -0.18393107 0.12872836 0.24378124 0.19706611 -0.20516254 0.07456376 -0.13462265 0.076458804 0.28322318 -0.07474112 0.018022347 -0.1252643 -0.050903685 0.3736879 -0.15511613 0.03540929 -0.22715113 -0.11414608
div_15 0.12585464 -0.08863047 0.044318937 0.2691847 -0.13336791 -0.27748877 0.22209519 0.1631369 -0.035509013 -0.23484051 0.38832924 0.0442022 -0.07528684 0.120628856 -0.06603455 0.19910176 -0.014507742 -0.1693362 -0.18304202 -0.010856122 0.16275194 0.27737844 0.34708944 -0.12753968 0.0070709065 0.21307309 -0.23542032 0.098636724 0.016454961 -0.11183576 -0.10209334 -0.08335465 0.2820357 0.015934538 -0.13549116 0.05015832 0.22068302 0.054271076 -0.07507336 0.027729359 -0.12172973 0.09383956 -0.13164696 -0.07210908 0.103058934 -0.09715944 -0.046313435 -0.058823716 0.24566793 0.2800109 -0.20192462 0.12901075 -0.16785407 0.07823072 0.25957268 -0.03058473 0.073759116 -0.21597256 -0.2475768 0.37163773 -0.11671728 0.13698483 -0.3008711 -0.15569808
input_6 0.23739444 -0.18984394 -0.17884114 -0.11074963 0.14580533 0.06412551 0.05803833 0.3869077 -0.41700134 -0.33289233 0.17921494 -0.376598 -0.033587594 -0.11525017 0.03383819 0.11998451 -0.08465022 -0.19021066 0.24469249 0.44215772 0.11566254 0.11950269 0.64395064 0.010487907 -0.19946796 -0.08910086 0.032733925 -0.18067251 0.043586954 0.034522425 0.093864605 -0.03267468 0.026696788 -0.18828908 -0.2977627 0.2487729 -0.120933264 -0.06354269 0.36039543 0.5431267 0.6044259 -0.073838726 0.09595442 -0.30914307 0.19770536 -0.10345004 0.21695209 -0.19062085 -0.09802899 0.24902348 -0.037683703 -0.13003078 0.23608446 0.51469386 0.039791144 -0.30408198 0.16316992 -0.09290931 0.12542047 -0.21141636 -0.05784478 -0.1820026 -0.04128862 0.1842269
span_38 -0.19138466 -0.13601176 0.27059945 0.38217342 0.0395986 0.2976084 0.19701344 0.2840576 -0.5313202 0.13356817 0.121751174 -0.39348814 -0.112005316 0.16624705 -0.3444842 -0.008943181 -0.038747426 -0.6944325 -0.38343814 -0.053419556 0.930774 0.79553455 -0.295819 -0.07144481 0.096042536 0.3460088 -0.13853961 -0.11554363 0.005942968 -0.16049148 -0.3353801 -0.19639464 0.062161703 0.05123466 -0.5081418 0.2967991 0.41184625 0.29142416 0.086976975 -0.107719675 0.39165375 0.07359977 -0.0826177 -0.12209025 -0.13806662 -0.123350725 0.5246618 -0.23253645 0.43121898 0.37393808 -0.43288788 -0.2774798 -0.24562728 -0.46020564 0.6749716 -0.21084371 0.17808653 -0.6647949 -0.22280127 0.19452795 0.36593485 -0.22019228 -0.539871 -0.21508203
span_12 0.09458557 -0.123994835 -0.1017018 -0.041763086 0.13734123 0.18069413 0.04248492 0.35010418 -0.30901346 -0.15457492 0.14737977 -0.43218964 -0.013004633 -0.1241631 0.06373244 0.20249018 -0.14062262 -0.23514532 0.26349035 0.54135054 0.13403681 0.17288783 0.64792067 -0.057791457 -0.28822073 0.025226558 0.05947318 -0.1698315 0.13382223 -0.02014567 0.13548765 -0.05589891 0.102594525 -0.28961584 -0.2530312 0.12950273 -0.016976237 -0.040035397 0.477608 0.48225924 0.51750237 -0.121933766 0.0533645 -0.26493403 0.16510206 -0.15115482 0.19469567 -0.15785426 -0.10622746 0.22554164 0.04117037 -0.11694806 0.3030781 0.65477216 0.12283807 -0.2626883 0.1623264 -0.10334218 0.12061372 -0.21676487 -0.09354166 -0.17921071 0.03944519 0.18709013
div_30 0.030619258 -0.26259208 -0.05911455 0.3439582 -0.12143759 -0.14253975 0.22855382 0.12018364 -0.09274884 -0.22860193 0.37065887 0.14380367 -0.08062775 0.04996834 -0.07643545 0.24441098 0.008239555 -0.003508942 -0.20734778 -0.014351509 0.21735193 0.4243088 0.28297943 -0.17203827 0.059386376 0.21806332 -0.14209665 -0.035222564 0.087968625 -0.20444539 -0.109184206 -0.09500569 0.40384012 -0.014399896 -0.11420101 -0.10210769 0.17862046 0.0037359109 -0.00010665109 0.026580194 -0.16575801 -0.026953625 -0.14088868 -0.05423659 0.103842035 0.06224778 -0.15505373 0.10349938 0.18420927 0.28420374 -0.18698521 0.03923086 -0.13329376 0.15068375 0.25829464 -0.021367276 0.25324383 -0.19706322 0.048982404 0.26078823 -0.1616116 0.03878358 -0.13469826 -0.21354012
div_2 0.05490073 -0.101354554 0.050908692 0.27104428 -0.015549239 -0.13670062 0.24212304 0.09708239 -0.19921592 -0.25962302 0.42360523 0.06788727 -0.16969317 0.099605545 -0.08744266 0.21234637 0.03546316 -0.04298669 -0.105276786 0.03728174 0.19354858 0.34212115 0.18263182 -0.09378957 0.1275003 0.15321517 -0.1531795 -0.001761006 0.030643703 -0.18390931 -0.0068741706 -0.14031 0.28421527 -0.06966462 -0.11673335 0.06373147 0.1363742 -0.01962148 0.055438727 0.06977228 -0.2519059 0.10023526 -0.16133332 -0.06628562 0.11072134 0.032034688 -0.07426764 0.028182313 0.33901635 0.092663586 -0.14943032 0.26728278 -0.09804272 0.11819983 0.29651052 -0.1595986 0.19879316 -0.20960014 -0.30402237 0.44303784 -0.118330345 0.11298645 -0.1947707 -0.08986378
input_8 0.101624966 -0.20517835 -0.017178979 0.030223392 0.1322175 0.201105 0.09689518 0.35044026 -0.33394152 -0.2647867 0.21277145 -0.43221897 -0.07869261 -0.16784647 0.13571234 0.19680838 -0.2450131 -0.20040588 0.3130466 0.44969934 0.23631038 0.10375342 0.58249 -0.039268557 -0.2528625 -0.06835137 0.014411237 -0.21694346 0.19358037 0.043145884 0.1331894 -0.0061493143 -0.0049495436 -0.28334004 -0.28424248 0.2700822 -0.028354 0.008056558 0.358523 0.5022549 0.61036354 -0.15238672 0.02758672 -0.25629547 0.13636993 -0.05976075 0.24155283 -0.182232 -0.10888155 0.25480756 0.012025405 -0.07250136 0.24531752 0.7093748 0.07350877 -0.23862733 0.23791218 -0.12887666 0.14244069 -0.22473332 -0.018876452 -0.25288433 -0.015919803 0.18657495
svg_4 0.20729247 -0.1724912 -0.12780459 -0.049423903 0.1071711 0.17739183 0.016201997 0.33699706 -0.3417263 -0.20838137 0.21101439 -0.3748184 0.0031770205 -0.18914393 0.07327575 0.15400782 -0.07335188 -0.15251772 0.2583481 0.36131752 0.18049254 0.203067 0.63158345 0.0021452834 -0.16095158 -0.12725729 0.050078694 -0.2105275 0.17575681 0.06676903 0.15148324 -0.026465705 0.084592365 -0.26504663 -0.2612643 0.23474208 -0.025661252 -0.11014744 0.42895108 0.38617378 0.5567482 -0.20042467 0.08723434 -0.28631756 0.11085618 -0.15804496 0.2563508 -0.15761118 -0.06601973 0.23073485 0.031685248 -0.06841334 0.26400146 0.62398666 0.12811786 -0.27834535 0.1669327 -0.107242085 0.13597734 -0.20271672 0.00876709 -0.1839642 0.028727822 0.0873693
div_47 0.06298993 -0.110335216 0.036131635 0.3477516 -0.07189182 -0.1253356 0.23279196 0.23131208 -0.27714464 -0.2962429 0.40643987 0.05962561 -0.17076215 0.13222282 -0.15412185 0.22217643 0.02738611 -0.07829627 -0.21747656 -0.028536083 0.1834636 0.35092685 0.18637605 -0.11512333 0.03293686 0.21848239 -0.142437 0.022663722 0.021773333 -0.1879793 -0.08549655 0.0009520579 0.32228246 0.028086476 -0.05026853 0.07234152 0.093693264 0.07459153 0.14395353 0.10274493 -0.19862556 0.10320079 -0.18833895 0.052349694 0.1848484 -0.054224227 -0.12527353 0.020317674 0.1348701 0.2615772 -0.2489759 0.14185165 -0.045990195 0.085824914 0.28012544 -0.042680416 0.10256672 -0.15523511 -0.14685614 0.27156836 -0.12188221 0.077687874 -0.17868705 -0.11447376
span_10 0.24144027 -0.12942332 -0.093648046 -0.1553268 0.09762458 0.1918445 0.09656974 0.35115266 -0.3582811 -0.24270463 0.17925443 -0.4182176 -0.08573545 -0.16251351 0.09901689 0.23069842 -0.15867223 -0.10030482 0.32870623 0.47746968 0.21713161 0.1872112 0.6119252 0.011915735 -0.2480429 -0.10460934 0.104516126 -0.18603162 0.14047013 0.0679304 0.12108965 0.05266452 -0.012768826 -0.26374173 -0.3249743 0.28190145 -0.09542826 -0.089060426 0.30503374 0.43649858 0.54412115 -0.13631353 0.09030135 -0.3345282 0.13069391 -0.03269164 0.3291691 -0.2856665 0.006905459 0.35390025 -0.02204883 -0.08213629 0.2904823 0.6727283 0.13331775 -0.2436132 0.124461375 -0.14699945 0.18099797 -0.14562486 0.051011544 -0.17530292 0.029563349 0.16561282
div_1 0.11210119 -0.14018352 0.009265624 0.3033313 -0.07261894 -0.20068511 0.06735233 0.06986494 -0.26484606 -0.29950345 0.36988345 0.017193737 -0.13033104 0.14028844 -0.13241206 0.23298535 0.044624936 -7.900208e-05 -0.07067837 -0.06681161 0.19186424 0.29351068 0.2217198 -0.07048871 0.13078967 0.23047204 -0.09205794 -0.008401846 0.09308873 -0.10990091 -0.031851638 -0.0929887 0.45170054 -0.09107728 -0.22576354 0.079642184 0.14054163 0.021376364 0.049781952 0.0326405 -0.16377321 0.0029967974 -0.14480418 0.043255366 0.07412905 -0.10555246 -0.17218915 0.056272812 0.20906511 0.33680063 -0.1837373 0.11878884 -0.0988291 0.13742082 0.3438496 -0.14214167 -0.07684111 -0.10773789 -0.20623805 0.20635094 -0.032756723 0.11336002 -0.19137082 -0.25410402
div_93 0.20434001 -0.1438248 -0.073321834 0.34046483 -0.04261323 -0.04339172 0.2138538 0.06493897 -0.10066585 -0.29364735 0.4484254 0.222883 -0.051183138 0.113900445 -0.04977963 0.21818116 0.068417534 -0.100006044 -0.13964015 0.045886893 0.07631617 0.4092115 0.19214281 -0.20885856 0.22164911 0.22877531 -0.26074076 -0.0046744817 0.050636042 -0.13423431 -0.016090026 -0.12819545 0.34609985 -0.096395284 -0.209202 0.0708989 0.099960975 -0.021637486 -0.108659506 0.05775581 -0.21474412 0.09618803 -0.06494509 -0.041569866 0.07860247 -0.09058706 -0.06352456 0.058234837 0.2757797 0.27874362 -0.14775966 0.09476717 -0.079408735 0.14487906 0.24601737 -0.27356276 0.023733443 -0.2772311 -0.15992302 0.298854 -0.15300682 0.05108729 -0.18583582 -0.17714979
div_42 0.12234895 -0.10582656 -0.080976866 0.16930102 -0.009151436 -0.005239805 0.33233526 0.1728744 -0.21480112 -0.2081711 0.3857091 0.15091872 -0.15628816 0.040926147 -0.0886054 0.30884483 0.085689045 -0.13594075 -0.11064348 0.041885804 0.14959036 0.4291582 0.14275633 -0.23236355 0.09344393 0.30341956 -0.09021239 -0.13572845 0.0043194494 -0.17316417 -0.10681153 -0.06257931 0.37380204 -0.01596912 -0.09025654 0.067851074 0.16664477 0.104246855 -0.078193225 -0.008764529 -0.23612761 0.0771747 -0.14342766 -0.076087974 0.1023528 0.06429972 -0.03558846 0.021478536 0.17876989 0.39853492 -0.1929084 0.16996391 0.03503598 0.053871248 0.33142072 -0.092239514 0.018527804 -0.20791239 -0.14254019 0.3595721 -0.09753945 0.07457962 -0.027335642 -0.21474059
span_4 0.103834346 -0.19584967 -0.10005741 -0.04860582 0.13398777 0.16998169 0.00493981 0.35685414 -0.3047276 -0.22067373 0.15130071 -0.40515107 -0.034458186 -0.19084302 0.09904214 0.104881585 -0.11917487 -0.23824498 0.1363175 0.49530455 0.07770371 0.11062631 0.67078245 0.03818688 -0.20989992 -0.19359371 0.052113604 -0.20441863 0.07664417 0.08231176 0.12250238 -0.0076132384 0.14514013 -0.20415351 -0.31475496 0.26021144 -0.066751905 -0.039803673 0.3677148 0.39279187 0.5661797 -0.15667753 0.023342824 -0.3681838 0.18563531 -0.15160923 0.2658189 -0.14770281 0.023062922 0.27061218 0.033107486 0.015068954 0.15505551 0.72448516 0.07827292 -0.1455284 0.33871207 -0.02825506 0.100651875 -0.20240982 -0.09433238 -0.17498621 0.027175426 0.124266274
div_31 0.07532259 -0.051223412 0.028276466 0.29792315 -0.03504327 -0.20655546 0.25833523 0.14588779 -0.22416355 -0.26483414 0.41475734 0.09345764 -0.033887077 0.12817957 -0.048538167 0.27992466 0.045907155 -0.013681469 -0.18282126 -0.021366633 0.14934926 0.39797315 0.05798049 -0.14310192 0.12005731 0.28457993 -0.23444955 0.06728176 -0.050592843 -0.28420845 -0.04212882 -0.021863723 0.41567284 0.019951664 -0.24402854 0.0018067654 0.117422156 0.041574627 -0.011192919 0.05919423 -0.12990774 0.071013965 -0.06419133 -0.05676816 0.19036609 -0.012199912 -0.077080525 0.07635997 0.28336254 0.1992672 -0.1883244 0.11683051 -0.059278518 0.15975018 0.1976317 -0.11753961 0.0774169 -0.27988034 -0.058792558 0.37936327 -0.1535563 0.1108676 -0.33645055 -0.14851998
div_37 0.07514794 -0.1940309 -0.041181304 0.25946715 -0.10950637 -0.09992613 0.20525526 0.05567142 -0.12088868 -0.27805448 0.19606376 0.111727096 -0.22004382 0.0035772051 -0.12267687 0.17310317 0.101594746 -0.11179353 -0.045546174 0.021086656 0.18368849 0.43328157 0.18916367 -0.19364215 0.13987154 0.14374179 -0.090740606 -0.10087945 -0.033242345 -0.23649278 -0.019964796 -0.25622785 0.30946165 0.11279444 -0.2521344 -0.06851904 0.07191628 0.014381962 0.076063864 0.00784101 -0.22517967 -0.11378047 -0.26519108 -0.06323517 0.09791247 0.008447455 -0.06359833 0.042676613 0.24898724 0.21962063 -0.381246 0.04839421 -0.095706806 0.19519454 0.353961 -0.05482177 0.1272435 -0.1707515 -0.17790298 0.33794037 -0.0891076 0.010330308 -0.18989785 -0.24443722
span_14 0.08693963 -0.21600376 -0.14207435 -0.008231812 0.23677443 0.12920563 -0.013619284 0.3636174 -0.32412902 -0.24670266 0.23479746 -0.38163242 0.045581013 -0.20811497 0.105493724 0.13342418 -0.14485589 -0.2132195 0.27669182 0.38157043 0.12422985 0.2768957 0.64111483 0.0042209933 -0.19849657 -0.028003266 0.026696244 -0.15781805 0.08969342 0.061843976 0.09470383 0.043173257 0.11344923 -0.32539406 -0.23730868 0.19581223 -0.1214978 -0.03150112 0.33598867 0.45160913 0.5799799 -0.19899204 0.10009518 -0.21763857 0.1528054 -0.06953237 0.21373141 -0.08679461 -0.065014765 0.25560367 -0.057951957 -0.15731472 0.3013299 0.7080497 0.083717674 -0.14084907 0.20242281 -0.042995017 0.15110362 -0.15038852 -0.0259393 -0.24459189 0.07979598 0.15815462
div_64 0.11619115 -0.22536844 0.0282536 0.22356646 -0.08355431 -0.15475447 0.2357537 0.0066516306 -0.16891241 -0.35107902 0.19940896 0.17402685 -0.18416427 0.109638184 -0.11808267 0.26850307 0.012671622 -0.0057427348 -0.054216675 0.00499228 0.18221326 0.3631044 0.24349488 -0.110776335 0.096659936 0.16147093 -0.07269505 -0.03777238 -0.014412833 -0.13734338 -0.022729125 -0.17295726 0.30253434 -0.017937988 -0.22829609 0.058473893 0.06870367 -0.09069208 0.01730707 0.0022405444 -0.22923678 0.11960448 -0.14914745 -0.0042209276 0.112881675 0.03423159 -0.07626463 0.03652914 0.30429062 0.2901707 -0.23654738 0.11674376 -0.108218856 0.12357671 0.33595085 -0.22439417 0.08431238 -0.25606787 -0.14838775 0.28125203 -0.06834764 0.061265733 -0.20946756 0.0024846056
div_89 0.18122146 -0.18369162 0.037694924 0.18742935 -0.12433473 -0.25019085 0.06734669 0.13590804 -0.10817969 -0.34561574 0.2552093 0.015405345 -0.21068178 0.1050313 -0.12904409 0.26200464 0.12069135 -0.047625765 -0.09721612 -0.0025144734 0.10372361 0.46407112 0.21903814 -0.03258235 0.12382375 0.2332447 -0.10689182 -0.00015662785 -0.037949193 -0.29801884 -0.15242797 -0.12579025 0.30592722 -0.085568845 -0.15194014 0.04284671 0.1974381 -0.013089054 -0.0034546955 0.034848128 -0.13342741 -0.023137582 -0.1645763 -0.09297873 0.117069006 0.03833544 0.0057257316 0.10123381 0.2551219 0.12877586 -0.1935684 0.19386713 -0.096002996 0.10685677 0.31473106 -0.0061639627 0.07554075 -0.1372748 -0.22647193 0.32922384 -0.0113146575 -0.012560741 -0.1427024 -0.22036013
div_8 0.021001115 -0.063475266 -0.014124399 0.32420674 -0.17916135 -0.21448216 0.19259587 0.16608228 -0.18122055 -0.24059755 0.34719583 0.1600719 -0.09161104 0.13795732 -0.16299216 0.35731804 0.06886715 -0.09014466 -0.14119028 -0.06783034 0.15766032 0.39169577 0.3137564 -0.14689448 0.1299553 0.21557537 -0.19389392 0.029832197 0.04484641 -0.13709193 -0.04714187 -0.17706713 0.41913795 -0.046430416 -0.17642136 0.013475258 0.107251845 0.069180824 0.015155695 -0.020196345 -0.16836521 0.052831836 -0.084862955 -0.06659891 0.16378713 -0.005499461 -0.14247072 0.024700148 0.2121163 0.26518607 -0.15502685 0.15344001 -0.19172502 0.03202489 0.35424665 -0.128163 0.066256896 -0.19781108 -0.0860439 0.23333465 -0.084715694 0.029408883 -0.24424842 -0.13553815
svg_8 0.26048207 -0.3062226 -0.15196668 -0.15910858 0.2680201 0.20259278 0.047823302 0.314489 -0.34429526 -0.27506745 0.12531015 -0.34213927 -0.050351374 -0.10838606 -0.12922291 0.14469711 -0.103829116 -0.2642465 0.30122802 0.43056515 0.0739513 0.26159352 0.6315296 -0.035590533 -0.26163566 -0.12777886 0.021089522 -0.17115687 0.1024556 0.060418975 0.102042474 -0.0070155365 0.06105915 -0.3977412 -0.24939363 0.16666934 -0.045101434 -0.116926104 0.39981192 0.5311593 0.5797856 -0.091609806 0.08819812 -0.2566898 0.13625802 -0.09250039 0.18691246 -0.23213463 0.00664648 0.22056706 0.10285471 -0.12833875 0.3488489 0.6425926 0.09340187 -0.27849254 0.17683421 -0.14303769 0.091420695 -0.0803663 -0.10650281 -0.19913495 0.019881804 0.27913848
span_19 0.2853792 -0.10182306 -0.26480043 -0.083407514 0.27251947 0.15170747 -0.08688365 0.3164515 -0.37122017 -0.3019242 0.118304014 -0.27891624 0.15183215 -0.11433226 0.1627494 0.13061309 -0.10871994 -0.19007052 0.16727008 0.49573383 0.21282913 0.24874422 0.74381244 0.047968093 -0.1552462 -0.130513 0.15193212 -0.19629699 0.034453686 0.0713319 0.16892292 0.06882582 0.10195279 -0.32824782 -0.21571133 0.14004073 -0.038840443 -0.13712372 0.40800744 0.35769162 0.49551788 -0.14606145 0.15650713 -0.24068494 0.12969835 -0.11090735 0.25546113 -0.13439524 0.0919265 0.25788185 0.060977794 -0.019483192 0.21866085 0.6876774 0.12040528 -0.13727275 0.27164248 -0.03726108 0.051638946 -0.17104708 0.062305298 -0.2672478 0.06355702 0.15373936
div_10 0.15576367 -0.06889293 0.04539141 0.24175091 -0.1604298 -0.24896306 0.14921759 0.07955557 -0.12613133 -0.34376872 0.39385927 0.039852273 -0.06850401 0.077283695 -0.06267219 0.23159035 0.029898746 -0.13861582 -0.10571319 -0.06610497 0.13372603 0.2098737 0.32166514 -0.1482313 0.15649399 0.23594102 -0.2484319 -0.047891255 0.038135353 -0.259121 -0.13919984 -0.07434431 0.3567177 -0.03318016 -0.20163876 -0.024953846 0.19801152 0.064139426 -0.118073456 -0.07432251 -0.12917483 0.19953221 -0.18087734 0.051139347 0.08816573 -0.011663101 -0.02248602 0.1235704 0.16893992 0.18856737 -0.10142202 0.18377629 -0.048748318 0.23986164 0.2932927 -0.25517845 0.030545946 -0.22822446 -0.087989785 0.23980573 -0.06867764 -0.03234261 -0.22661275 -0.23230653
input_4 0.15504372 -0.18735781 -0.068079434 -0.07974586 0.12955926 0.16274458 0.09999979 0.40614223 -0.40125525 -0.35394365 0.19500774 -0.4251231 -0.034202337 -0.25806648 0.039286405 0.13144296 -0.14018895 -0.13333966 0.19632573 0.43856058 0.20439784 0.19640435 0.59585136 -0.09930084 -0.20130116 -0.12976043 0.075174324 -0.1944379 0.16518575 0.00057848514 0.14738588 0.1480054 0.099198245 -0.3287197 -0.18836555 0.22161868 -0.038202982 -0.03424524 0.31315738 0.48230386 0.6365895 -0.22431627 -0.017800717 -0.32461607 0.06482643 -0.0943659 0.16894655 -0.18522178 -0.046412487 0.17095514 -0.040263712 -0.059609015 0.28663725 0.58772266 0.16478613 -0.23136191 0.28857327 -0.09995018 0.16103193 -0.20867617 -0.10925746 -0.17842604 0.059588786 0.13740632
div_78 0.16494015 0.020381873 -0.008322115 0.27640036 -0.03841362 -0.12335473 0.25949872 0.06889123 -0.20811085 -0.1435718 0.3940135 0.1587799 -0.11111694 0.11043635 0.0103647625 0.26414683 0.014125736 -0.17667718 -0.015684716 0.09893197 0.19463891 0.32130542 0.27814317 -0.10821645 0.13074954 0.2657081 -0.16261663 -0.0233882 -0.014609493 -0.1558149 -0.1555029 -0.06853919 0.2642856 -0.122135445 -0.10197638 0.08295913 0.1846212 -0.007965754 -0.03337683 -0.051757853 -0.3098113 0.04443824 -0.17468551 -0.058082785 0.1630821 0.017205719 -0.12433658 -0.017279303 0.2588134 0.21923655 -0.110708654 0.080508925 -0.08068203 0.045833826 0.29520553 -0.24494515 0.1566443 -0.17211345 -0.14177 0.36474955 -0.08467536 0.06183316 -0.16266188 -0.09918197
div_77 0.040104173 -0.05217363 -0.11153168 0.27485314 -0.17250463 -0.23147039 0.2243116 0.07851151 -0.14377663 -0.2842356 0.16818798 0.07741522 -0.07222097 0.10508213 -0.13599725 0.16195169 0.08626549 -0.10255501 -0.14005992 0.016565826 0.18279423 0.24687679 0.30238134 -0.29448584 0.15464416 0.21855474 -0.18660742 0.030820375 0.103868596 -0.16212294 -0.07535488 -0.16379908 0.4219986 -0.07662361 -0.28036028 0.07902224 0.11134851 0.06317961 0.11226366 -0.019769281 -0.3053641 0.029872747 -0.06627555 -0.049497914 0.0916781 0.060143813 -0.0866612 0.033906452 0.24209298 0.261798 -0.2820391 0.0929208 -0.050959535 0.15631431 0.46370503 -0.17083764 -0.101880535 -0.15098155 -0.13622011 0.3118342 -0.17242238 0.0857769 -0.24225956 -0.24201952
input_9 0.16604076 -0.09451706 -0.17870109 -0.12115638 0.19951023 0.09426177 0.07175988 0.4375899 -0.33955345 -0.38393876 0.17723775 -0.41945392 -0.02489815 -0.23362333 0.05756322 0.11953186 -0.12668458 -0.11967825 0.3316806 0.4975993 0.14209235 0.1665196 0.63684237 -0.060878195 -0.2498623 -0.047588114 0.061184414 -0.19288859 -3.30705e-06 -0.029982531 0.08148973 0.09896265 0.10558982 -0.2448545 -0.14180529 0.22133511 -0.13542688 -0.070457324 0.29573962 0.47873914 0.5854317 -0.06205638 0.08731606 -0.26535207 0.27922612 -0.07145952 0.19772029 -0.21806005 -0.039976537 0.29705295 0.07311351 -0.13928828 0.2743921 0.752371 0.055214692 -0.21052925 0.21537277 -0.12362783 0.14833523 -0.118772365 -0.06321213 -0.20267053 0.09321859 0.05792138
div_26 0.07750326 -0.23123957 0.10819123 0.22247633 -0.14014384 -0.15541922 0.22024813 0.04563622 -0.15472554 -0.23032597 0.20010006 0.09889547 -0.12514095 0.1143444 -0.040526193 0.22869536 0.07673702 -0.1467123 -0.10435993 -0.01203252 0.24586414 0.35416722 0.19770312 -0.10789085 0.08268761 0.2641321 -0.095350936 0.0073839645 0.05622535 -0.09786643 -0.08079084 0.010409083 0.3861652 -0.05831884 -0.182246 0.08910146 0.26402643 -0.0013991116 0.03247568 0.024449026 -0.25745982 0.08727598 -0.19802698 -0.05198254 0.17533171 -0.00975787 -0.080758855 0.0163377 0.24040072 0.32091025 -0.19186123 0.17939101 -0.1224082 0.16389863 0.1564872 -0.11632058 0.036743432 -0.28363183 -0.22372799 0.43495348 -0.1353669 0.033185173 -0.23981407 -0.20983317
label_5 0.0927014 -0.16020866 -0.0035933282 0.37718236 -0.089767955 -0.20224549 0.23962027 -0.0005231666 -0.23038237 -0.11645212 0.34104538 0.19580477 -0.040036716 0.062633626 -0.25571242 0.20306265 0.028931292 -0.09308298 -0.03305753 0.009456891 0.19213812 0.45321503 0.25145847 -0.10583676 0.16162921 0.15317288 -0.054890614 0.0015145207 -0.035204597 -0.1342414 -0.12624723 0.050747044 0.24532467 -0.08530941 -0.17826211 -0.001357136 0.2327283 0.12528414 0.12297013 0.063786596 -0.18108031 0.043901764 -0.09061691 0.029788934 0.15233792 0.04655629 -0.14691164 0.08387718 0.13537996 0.17578214 -0.14574009 0.061768353 -0.13594714 0.113298945 0.3122889 -0.16920757 0.2054106 -0.113914326 -0.14845502 0.2614373 -0.16287673 0.0067584123 -0.21625346 -0.17373198
div_73 0.051508915 -0.09730376 -0.045738425 0.35742316 -0.079669274 -0.13961063 0.22916944 0.1124065 -0.21374558 -0.216834 0.27312422 0.09302568 -0.12890072 0.1345984 -0.15241694 0.24824822 0.068616256 -0.106533326 -0.03218797 -0.030400887 0.25708517 0.2245251 0.28263426 -0.0674181 0.18948025 0.20472425 -0.193961 -0.036934488 -0.012945746 -0.18353905 -0.12326976 -0.115205124 0.44097334 -0.078473106 -0.21610287 -0.059808597 0.10432217 0.09673845 0.02256122 0.013411734 -0.23474635 0.08564527 -0.2246995 -0.01026857 0.039991684 -0.0009894209 -0.17549643 -0.020219838 0.13124423 0.25803468 -0.19300558 0.07163069 -0.14275962 0.14350897 0.27681068 -0.11060539 0.10511749 -0.26850724 -0.2854215 0.22798793 0.03750014 0.071260594 -0.19297318 -0.065216824
svg_6 0.13997346 -0.23152992 -0.17500679 -0.07905625 0.15102845 0.1850919 -0.056982238 0.3174371 -0.44605246 -0.19093312 0.22228912 -0.39798963 -0.050127577 -0.17400706 0.016726622 0.028548563 -0.11756345 -0.19796903 0.251097 0.40167922 0.1109926 0.2265814 0.5924279 0.0020652034 -0.20637038 -0.061879482 0.010670745 -0.27852908 0.15442726 0.06988638 0.13150384 0.097678736 0.074675694 -0.25573176 -0.3330075 0.2891655 -0.035100527 -0.04712273 0.3895097 0.4260902 0.59181356 -0.1754199 0.022373937 -0.21259879 0.18644103 -0.1005699 0.28368196 -0.18460114 -0.060117066 0.31279492 0.008374579 -0.15406959 0.26515925 0.6800976 0.08539342 -0.22906524 0.22719154 -0.14514627 0.077980824 -0.101532705 -0.030817274 -0.25747654 0.109472394 0.11797438
span_23 0.17119983 -0.16733162 -0.16321205 -0.068308696 0.18273622 0.16279036 0.041449945 0.28142455 -0.34824318 -0.2919967 0.12904963 -0.29578474 -0.00030364265 -0.14503978 0.15057671 0.14995883 -0.06896026 -0.15316918 0.21625653 0.5474839 0.09700715 0.15799509 0.6702303 0.07187021 -0.21439749 -0.07796846 0.085537754 -0.1291182 0.062142577 0.035548348 0.108586445 -0.026485898 0.1337165 -0.2344063 -0.25085342 0.21793078 -0.041389428 -0.065186955 0.3660061 0.49853894 0.57459146 -0.16056062 0.031233741 -0.29837996 0.097390994 -0.18155272 0.19202033 -0.17134084 -0.049320936 0.28285974 -0.033974864 -0.021258486 0.21931909 0.7084101 0.06254567 -0.192166 0.25603107 0.049203604 0.15967435 -0.20085444 -0.0385105 -0.24676433 -0.04335407 0.115933344
input 0.06053358 -0.008706903 0.11845392 0.30310318 0.022429442 -0.21120623 0.24656066 0.16831884 -0.06598878 -0.28732544 0.37052944 -0.01533785 -0.10179933 -0.04045016 -0.13501771 0.16985247 0.03595071 -0.16715014 -0.06461808 -0.07164253 0.21508606 0.34654352 0.23668715 -0.19761413 0.046826705 0.20932068 -0.14596286 0.11059543 0.030429706 -0.17665802 -0.15329614 -0.11651251 0.4663747 0.08604901 -0.23594418 0.013179572 0.18664314 0.032680947 0.00563045 0.050159663 -0.18301761 0.099114716 -0.10620961 -0.038163975 0.14646919 0.023345273 -0.02400201 0.08310786 0.29944932 0.31361845 -0.24072702 0.14604427 -0.11497345 0.12899083 0.29125482 -0.06484487 -0.009587304 -0.1987401 -0.18989623 0.39453897 -0.023941291 0.030704737 -0.2536727 -0.08375549
input_10 0.09859654 -0.2234561 -0.16422455 -0.07532198 0.2261159 0.16427681 0.14439535 0.34215406 -0.32025298 -0.25588736 0.12591843 -0.33638215 0.03701476 -0.25529826 -0.03242221 0.057237215 -0.10067314 -0.071312815 0.20480512 0.47074842 0.17820755 0.30290577 0.58371717 0.08892285 -0.14044291 -0.15288687 0.07532643 -0.18884756 0.088227026 0.11929048 0.06840938 0.033000603 0.10714853 -0.17984366 -0.28362414 0.26658726 -0.0121397665 -0.044900153 0.35447547 0.38830516 0.65281636 -0.1735684 0.0071661314 -0.20783444 0.16628645 -0.147754 0.30550343 -0.17748207 0.03162759 0.2569148 0.016950104 -0.11099858 0.24103136 0.6493235 0.056771275 -0.31739002 0.24515861 -0.10181217 0.12684353 -0.2359673 -0.05729208 -0.29210034 -0.02039492 0.05340115
div_4 0.24670058 -0.22733591 -0.07621883 0.15873462 -0.14381486 -0.25494668 0.20812875 0.0053613475 -0.21043645 -0.22554062 0.38015357 0.17205757 -0.10275292 0.11000349 -0.15764834 0.32477358 0.12059582 -0.07950684 -0.086850405 -0.0012703897 0.2541544 0.30029348 0.24456495 -0.21011297 -0.07893489 0.26184165 -0.10826926 -0.07751931 -0.00822102 -0.18482941 -0.07165493 -0.15999454 0.30183607 -0.052190114 -0.27307245 -0.0064658457 0.18015653 -0.089721136 -0.014578852 -0.092255294 -0.21601179 0.0580185 -0.14024365 -0.08623822 0.05175272 -0.061542302 -0.11811704 0.008565445 0.26384872 0.3808319 -0.17759985 0.16700771 0.002681453 0.019348087 0.16972382 -0.077965654 0.04470046 -0.19873929 -0.04698736 0.36011285 -0.10158991 0.10646605 -0.242149 -0.14290476
span_29 0.07737139 -0.16779134 -0.043410275 0.28835788 -0.038581662 -0.16254209 0.28954297 0.22076054 -0.28674877 -0.30098704 0.34644058 0.049470346 -0.074168466 0.105667196 -0.12414712 0.31190354 0.044732504 -0.10802081 -0.14541735 -0.0999053 0.21799213 0.31112576 0.21814112 -0.13882503 0.11826922 0.2000755 -0.17910422 -0.015779164 -0.069234155 -0.13621093 -0.0442288 -0.14289951 0.26929185 -0.0112322215 -0.16006367 -0.06433443 0.1941954 0.023897646 0.018789196 0.05622772 -0.24687321 0.036457475 -0.10328932 0.014848278 0.091772884 0.08907073 -0.022466945 0.09277614 0.11541496 0.2134696 -0.3173679 0.14776525 -0.048778135 0.10915479 0.33589157 -0.1187976 0.1195301 -0.19969113 -0.16821432 0.33829722 -0.10220684 0.046048533 -0.20240937 -0.106888816
div_14 0.16091216 -0.10244286 0.022201313 0.30780917 -0.013952698 -0.12324381 0.1617428 0.16256586 -0.20378032 -0.19595027 0.2803431 0.065123655 -0.28181833 0.19727309 -0.15152279 0.29359823 0.09850912 -0.06733422 -0.12692839 -0.057864897 0.18207029 0.2998461 0.27410242 -0.230558 0.07791256 0.2002271 -0.20402513 0.049269613 0.017582742 -0.14090393 -0.13593076 -0.06688666 0.2769062 -0.048072863 -0.18926838 0.039888915 0.1278207 0.016224664 -0.040937044 -0.024733739 -0.19283938 0.07058524 -0.12243441 -0.08930678 0.14139423 0.061584767 -0.10376562 0.027166272 0.22246955 0.21095699 -0.32175973 0.17845777 -0.17551818 0.1497271 0.3883832 -0.13810647 0.0335331 -0.11926773 -0.16244596 0.27028674 -0.07208862 -0.021205714 -0.1761031 -0.10056222
div_28 0.081477225 -0.16695052 0.0009921797 0.20818469 -0.072404444 -0.1587703 0.24082547 0.113441914 -0.1642125 -0.22413687 0.40168896 0.054189973 -0.10606271 -0.057497967 -0.17920856 0.19830993 0.020228796 -0.13742754 -0.08521609 -0.016538415 0.25166118 0.37658364 0.2058939 -0.19474298 0.033838063 0.23413047 -0.18487611 -0.063870326 0.071210325 -0.1307891 -0.03743133 -0.28438708 0.31727782 0.060460277 -0.12495737 0.016286042 0.20021902 0.17797133 -0.02135098 0.020288238 -0.19487976 0.04873673 -0.18717156 -0.059768487 0.07028077 0.08882414 -0.15117522 0.1768881 0.2006794 0.16266342 -0.060507894 0.19021542 -0.11768016 0.13297008 0.2984562 -0.12185133 0.096606344 -0.12226591 -0.12135197 0.30944422 -0.04833315 0.019228319 -0.27102163 -0.18486942
input_11 0.11501559 -0.091440886 -0.09986408 0.14612322 -0.043240193 -0.10577227 0.23805633 0.043589644 -0.19726034 -0.17924961 0.29160208 0.11011996 -0.20571263 0.14190528 -0.13164511 0.1563829 0.09714196 -0.2113029 -0.07199832 -0.081801094 0.21571438 0.20939241 0.2881944 -0.13218297 0.03170562 0.15114005 -0.13128352 -0.012501579 0.009107393 -0.072597936 -0.06887417 -0.10036596 0.3986433 -0.088559985 -0.07066969 0.08051344 0.13546576 0.0849004 0.16375872 0.10586638 -0.2500843 0.058982603 -0.1179868 -0.0035204084 0.061907317 -0.051546045 -0.1534228 0.09838817 0.21471447 0.2624462 -0.121482894 0.124240294 -0.07155889 0.14686936 0.37630567 -0.11699113 0.02800888 -0.21995023 -0.14185444 0.35984161 -0.13649085 0.11570262 -0.27297464 -0.10000763
div_25 0.15989058 -0.13171582 0.10393575 0.3667272 -0.0064629796 -0.13131484 0.25507078 0.103753604 -0.15251003 -0.2715902 0.31015548 0.1860637 -0.03559221 0.1328902 -0.045284357 0.31862327 0.03085943 -0.12029354 -0.117582634 -0.024168437 0.2706269 0.39902198 0.19724491 -0.1480919 0.17605864 0.19305494 -0.11243477 -0.005108936 -0.009096786 -0.3147589 -0.029779602 -0.109423555 0.36160058 0.007226553 -0.16270193 0.055890627 0.19420548 -0.044098258 0.074921995 0.10562956 -0.18685777 0.04316915 -0.20999353 0.023831185 0.10485592 -0.015751658 -0.07927807 -0.14009394 0.13518737 0.17973857 -0.18499766 0.14320764 -0.10779903 0.055624813 0.37110043 -0.14562142 0.023880528 -0.12395843 -0.14619565 0.30775145 -0.0049163746 0.05005999 -0.2501118 -0.09034052
span_20 -0.023095878 -0.06392893 -0.07078521 0.22117215 -0.105803475 -0.21828382 0.1697733 0.1921476 -0.2572616 -0.2924807 0.32626143 -0.014312657 -0.15444233 0.077944435 -0.12936929 0.16775127 0.1867034 -0.049915966 -0.09046833 -0.03173876 0.20412669 0.43625695 0.28806373 -0.18561044 0.14545381 0.25171754 -0.10338916 -0.064756304 0.06645103 -0.25553152 -0.04644616 -0.07667052 0.30623543 -0.048773278 -0.11668805 -0.036747284 0.11784471 -0.04295203 -0.05414884 0.050022732 -0.17542188 -0.037665054 -0.21658285 0.065451235 0.08292037 0.04305894 -0.115425736 0.06767022 0.3231209 0.26670521 -0.16663694 0.14586551 -0.12790237 0.13660462 0.42816457 -0.052576445 0.10037865 -0.198051 -0.15547134 0.29864678 -0.110835135 0.05269453 -0.1573733 -0.04477266
div_70 0.13229057 -0.08826964 -0.034259867 0.2568015 -0.19888873 -0.20402646 0.2496879 0.15287656 -0.045709066 -0.19084756 0.24287418 0.1534555 -0.22299588 0.13664223 -0.13266763 0.23984991 0.021484643 -0.039082456 0.032824636 -0.020414582 0.2282353 0.31469736 0.26794723 -0.05134655 0.06982935 0.12190915 -0.1704112 -0.061750077 0.0051939534 -0.22567636 -0.1250671 -0.04682484 0.35020673 -0.022916168 -0.20625068 0.021925453 0.21766953 -0.07724127 0.026468752 0.028032733 -0.2495619 0.08429594 -0.12336007 -0.022589922 0.040186923 0.07408946 -0.048960708 0.0449799 0.20886415 0.29612675 -0.23295161 0.14655186 -0.15046854 0.21660519 0.3697721 -0.106695876 0.028077863 -0.21421553 -0.11078742 0.38491893 -0.041306797 0.032550104 -0.2528534 -0.12976016
div_23 0.10428213 -0.11791408 0.11572364 0.3915425 -0.051692124 -0.2562753 0.27304164 0.18902202 -0.23405643 -0.2751269 0.356761 0.064186245 -0.067800656 -0.022690043 0.013680653 0.3206143 0.032532144 -0.08396222 -0.036785237 -0.063013904 0.21648145 0.37209842 0.20806584 -0.17465606 0.16661236 0.14185718 -0.18229271 0.039867602 -0.04177799 -0.1645289 -0.1780258 -0.037354056 0.25773585 -0.14567463 -0.16332021 0.01272393 0.15956946 0.06718437 -0.03585202 -0.1042671 -0.15009582 0.03895261 -0.092235915 0.015303778 0.08919673 -0.049070142 -0.06423951 0.169178 0.36993083 0.20310828 -0.23887505 0.012723541 -0.101354554 0.17576386 0.32160884 -0.10880293 0.0038687747 -0.21453491 -0.16423045 0.2679102 -0.12016725 0.15499544 -0.2103004 -0.15403725
div_66 0.16704568 -0.08173023 -0.046562295 0.35630456 -0.1148733 -0.20772594 0.28467357 0.12174772 -0.11084443 -0.31014073 0.19643909 0.107566155 -0.060763966 0.015278996 -0.050771184 0.1931378 0.060101803 -0.037289843 -0.18687041 0.03482685 0.24568826 0.30852172 0.3019063 -0.08880599 0.1817422 0.2801254 -0.14367539 0.008095271 0.008790631 -0.19215883 -0.122637495 -0.09453966 0.32902038 -0.029619724 -0.1438269 0.03963354 0.16141771 0.14816822 -0.026116988 0.124368005 -0.21046364 0.081870645 -0.11393496 0.012380416 0.22710261 0.088366516 -0.031073092 0.009660561 0.24524078 0.23625271 -0.20048614 0.08833582 0.024236007 0.12429203 0.31087387 -0.1004272 0.042967603 -0.21164434 -0.009390176 0.3294976 -0.11755533 0.07442341 -0.26713312 -0.11706431
svg_9 0.12653472 -0.17937253 0.026960207 0.06904668 0.14306915 0.23268011 -0.05059748 0.40515092 -0.32382938 -0.26213175 0.12232706 -0.4365097 -0.031387106 -0.16480629 0.08248689 0.13486136 -0.24266756 -0.2425927 0.17512232 0.50728 0.09255711 0.2576578 0.61404246 -0.027995951 -0.40206513 -0.08056424 0.17440367 -0.1422807 0.10604177 0.09924567 0.13093579 -0.021195484 0.09710541 -0.27351937 -0.28778434 0.22176628 -0.105408676 -0.023236139 0.46277434 0.36264116 0.5199939 -0.2294231 0.097444765 -0.29173055 -0.005798116 -0.23703898 0.3623077 -0.2750254 0.02026543 0.27546775 0.022502892 -0.050751213 0.24562445 0.6279601 0.1682154 -0.13481712 0.281026 -0.036150377 0.006156301 -0.15097737 -0.07495224 -0.21517554 -0.017675003 0.18606067
span_25 0.14876102 -0.2463669 -0.014010734 0.22253686 -0.18125686 -0.18307129 0.11004283 0.19313115 -0.19454394 -0.23570746 0.35964942 0.10481306 -0.10963561 0.07754254 -0.014675638 0.22105266 0.09057388 -0.0663163 -0.06498103 0.008567575 0.2516136 0.26356778 0.09035122 -0.17306593 0.0972281 0.17797075 -0.13201995 0.036893945 0.058571734 -0.22812662 0.020684216 -0.09449425 0.31159607 -0.07506466 -0.26474285 -0.007237339 0.24831687 0.009034028 0.009772265 0.038996626 -0.27759942 0.0587225 -0.18650809 0.025565255 0.24465862 0.003359523 -0.10017246 0.021628398 0.23647755 0.22943223 -0.21449074 0.032788903 -0.08939119 0.25819343 0.30193728 -0.13527031 0.08473611 -0.14957972 -0.27035344 0.31868052 -0.09544449 0.11727986 -0.24164402 -0.25914782
div_53 0.06993592 -0.17027238 0.0941855 0.28962287 -0.016027682 -0.13804576 0.20873484 0.17509176 -0.28825757 -0.3855166 0.37532544 -0.07449273 -0.16869433 0.1339674 -0.039541464 0.27007163 0.17632304 -0.054496024 -0.16008729 -0.0073559247 0.2226273 0.30543202 0.21520936 -0.059276376 0.2396065 0.022096938 -0.064789794 0.017965708 -0.06239494 -0.25228453 -0.1166596 -0.20149495 0.32471094 -0.024198314 -0.25956678 0.025852878 0.11288187 0.007471125 0.0383041 -0.028834144 -0.24016087 0.21144804 -0.24729851 -0.101551205 0.21428375 0.12878999 -0.11791242 0.052676704 0.2557838 0.17831524 -0.2460704 0.06230098 -0.12363741 0.13076521 0.23840223 -0.06357787 0.026772676 -0.15444313 -0.14502141 0.27953 -0.11808926 0.08587214 -0.18925242 -0.03814804
span_13 -0.0094918795 -0.16780426 -0.07026716 0.31673667 -0.06330547 -0.14377806 0.27726892 0.1717843 -0.2102955 -0.18212481 0.312945 0.12131064 -0.1411266 0.13979083 -0.012367209 0.36486402 0.17179583 0.050713036 0.05463898 -0.08596258 0.2240147 0.39991757 0.1929381 -0.11279654 0.04743924 0.2054719 -0.15621199 0.0063261986 0.077346615 -0.16974641 -0.04636561 -0.13277218 0.39359626 0.13543455 -0.19583082 0.0007334224 0.1655416 -0.1281549 0.05337971 0.024508443 -0.14956783 0.042019267 -0.037625734 -0.05304473 0.24312355 -0.075612515 -0.16116962 -0.097170584 0.22798677 0.30161 -0.116380736 0.17150436 -0.11270092 0.124584444 0.27954122 -0.13257127 0.09824512 -0.13720632 -0.14627254 0.35161623 -0.06573371 0.10935701 -0.17710109 -0.12102539
div_57 0.10096471 -0.10280852 0.028644877 0.23434423 -0.03254847 -0.09657433 0.3267535 0.16029698 -0.22045964 -0.3251423 0.32079208 0.05918172 -0.121710785 0.024602363 0.032275077 0.3530911 0.12279219 -0.20846352 -0.050733857 -0.11121429 0.14013134 0.3728143 0.32351005 -0.101932995 0.09314122 0.26828772 -0.12000492 0.098180994 0.043863524 -0.2078351 -0.11968561 -0.107981734 0.41560927 -0.14345604 -0.1031745 0.043521587 0.22233519 0.1014767 -0.103288494 0.045456227 -0.1566612 0.0344665 -0.17491706 -0.00814985 0.10830243 -0.028084662 -0.15372014 -0.014789159 0.20357403 0.19155738 -0.1280571 0.12512961 -0.036173213 0.045709293 0.25657293 -0.15683071 0.017142095 -0.17242588 -0.18279882 0.23508106 -0.03213661 0.12675565 -0.21845067 -0.20719652
input_2 0.17595994 -0.097416066 -0.1208993 -0.047569074 0.08545862 0.1394603 -0.014262266 0.42086357 -0.35502675 -0.24769787 0.17139494 -0.33881956 -0.05571804 -0.19221622 0.0046523516 0.28255174 -0.23264877 -0.21323375 0.28282854 0.48180333 0.11868309 0.16685958 0.59060705 0.06727905 -0.17361099 -0.12427049 -0.017941196 -0.18932736 0.08194381 0.20430158 0.17108797 -0.06586099 0.022789476 -0.29915285 -0.36942467 0.21691416 -0.042622976 -0.14742424 0.37913436 0.50557137 0.58328 -0.11247333 0.027662333 -0.33846378 -0.012916738 -0.15013826 0.20270741 -0.108327255 -0.04977598 0.11307639 -0.030085605 -0.18015935 0.24971247 0.7321231 0.14940843 -0.22476426 0.17123339 0.049335614 0.02357093 -0.1535481 0.006146843 -0.23204708 0.033677105 0.13264616
button_1 0.064916745 -0.039717466 0.064862944 0.2517686 -0.020583045 -0.11030544 0.27813467 0.17366655 -0.0945228 -0.28350487 0.33501056 0.094655335 -0.07452462 0.14569801 -0.16929878 0.15972571 -0.0010799085 -0.118702695 -0.17305304 0.039266717 0.20953861 0.34656093 0.28723595 -0.14351912 0.17290883 0.13474883 -0.10931922 -0.10990688 -0.057659402 -0.0995268 -0.15966474 -0.16323055 0.32883474 0.07830813 -0.20893605 -0.021817282 0.07937461 0.020149468 -0.012021765 -0.03896938 -0.22344086 0.17623541 -0.10592295 -0.008647674 0.13240035 0.0005752655 -0.11500796 0.03846215 0.31663683 0.32331756 -0.15322804 0.084115304 -0.07094116 0.19925062 0.30676818 -0.2221311 0.08731707 -0.13470984 -0.039221752 0.38459793 -0.22497469 0.08457029 -0.19718249 -0.046440445
div_29 0.19475007 -0.13383846 -0.058032203 0.1603187 -0.16945682 -0.2048496 0.2309854 0.27048543 -0.18449682 -0.28104982 0.22389896 0.17778727 -0.019170238 0.11465464 -0.032280147 0.20757057 0.13063672 -0.022477338 -0.08978227 -0.13674022 0.104314126 0.39309725 0.16337906 -0.09390545 0.07744887 0.24688575 -0.25650284 -0.0037495815 -0.010288859 -0.20578428 0.034942493 -0.06443999 0.26799965 -0.043188967 -0.1486611 -0.07799092 0.05889526 -0.055966787 -0.028486157 0.07547353 -0.11559319 0.023162033 -0.14345226 -0.0048055183 0.05245468 0.048647415 -0.13424455 0.022407327 0.34468052 0.2710706 -0.2987176 0.0928372 -0.1297769 0.16553274 0.43753302 -0.11900145 0.11222621 -0.26617214 -0.06593128 0.29508922 -0.047684945 -0.012221716 -0.24750873 -0.06599769
svg_7 0.26905343 -0.19188167 -0.18025032 -0.16445863 0.12511635 0.10687088 0.08309353 0.36132914 -0.4098334 -0.2907837 0.24298774 -0.24988803 -0.028900059 -0.18529123 0.09886637 0.07553489 -0.1444551 -0.0982788 0.322058 0.43019098 0.052864958 0.07300705 0.6304037 0.014144424 -0.19263224 0.000839834 0.052222047 -0.28868786 0.13991788 0.008371151 0.16709518 0.1012707 0.08647726 -0.35115844 -0.22168398 0.26010832 -0.082348466 -0.08132862 0.38387126 0.47979268 0.5470746 -0.16044989 -0.0071858 -0.20232862 0.17963289 -0.017735519 0.20509613 -0.13014182 -0.010421024 0.22417389 -0.012019267 0.0862609 0.35986167 0.68119127 0.16552942 -0.30906722 0.23996888 -0.09611816 0.14172523 -0.10291435 -0.121890575 -0.31995153 0.072978936 0.25322974
